{"LayerWraps":[{"LayerType":5,"Dense":null,"Dropout":null,"Flatten":null,"Lstm":null,"MaxPool":null,"Conv":{"Shape":{"Height":30,"Width":30,"Depth":1},"Kernel":{"Count":16,"Dim":3},"Activation":1,"Stride":1,"Filters":[{"ElementsOneD":null,"ElementsTwoD":null,"ElementsThreeD":[[[0.14276916],[0.2074463],[0.2467924]],[[-0.076146945],[-0.030636325],[0.053330667]],[[-0.29971203],[-0.18652149],[-0.19734809]]],"_shape":{"Height":3,"Width":3,"Depth":1},"Shape":{"Height":3,"Width":3,"Depth":1}},{"ElementsOneD":null,"ElementsTwoD":null,"ElementsThreeD":[[[0.037931416],[0.06760585],[0.114371724]],[[0.046103314],[0.055050828],[0.09370091]],[[0.123684645],[-0.011843125],[0.0027465238]]],"_shape":{"Height":3,"Width":3,"Depth":1},"Shape":{"Height":3,"Width":3,"Depth":1}},{"ElementsOneD":null,"ElementsTwoD":null,"ElementsThreeD":[[[0.09782269],[0.013711089],[-0.17373928]],[[0.13006017],[-0.038025733],[-0.1503663]],[[0.09007139],[-0.05685591],[-0.057317104]]],"_shape":{"Height":3,"Width":3,"Depth":1},"Shape":{"Height":3,"Width":3,"Depth":1}},{"ElementsOneD":null,"ElementsTwoD":null,"ElementsThreeD":[[[0.10434862],[0.10153586],[-0.05576533]],[[0.057852626],[0.075090334],[0.07193872]],[[0.037250098],[0.06215185],[0.02481021]]],"_shape":{"Height":3,"Width":3,"Depth":1},"Shape":{"Height":3,"Width":3,"Depth":1}},{"ElementsOneD":null,"ElementsTwoD":null,"ElementsThreeD":[[[-0.19315535],[-0.0071642753],[0.09748546]],[[-0.10218083],[0.030298945],[0.06782715]],[[-0.06679935],[0.0062825866],[0.06641312]]],"_shape":{"Height":3,"Width":3,"Depth":1},"Shape":{"Height":3,"Width":3,"Depth":1}},{"ElementsOneD":null,"ElementsTwoD":null,"ElementsThreeD":[[[-0.10482822],[-0.17397586],[-0.16003223]],[[0.060870774],[0.060207725],[-0.020495068]],[[0.06846932],[0.107922144],[0.048284803]]],"_shape":{"Height":3,"Width":3,"Depth":1},"Shape":{"Height":3,"Width":3,"Depth":1}},{"ElementsOneD":null,"ElementsTwoD":null,"ElementsThreeD":[[[-0.011942821],[-0.01531129],[0.093113]],[[0.027042374],[0.05047309],[0.07636767]],[[0.016676925],[0.047078937],[0.020388102]]],"_shape":{"Height":3,"Width":3,"Depth":1},"Shape":{"Height":3,"Width":3,"Depth":1}},{"ElementsOneD":null,"ElementsTwoD":null,"ElementsThreeD":[[[0.023559188],[0.06911149],[0.0012220307]],[[0.03855656],[0.00546095],[-0.010321601]],[[0.060152844],[0.03260616],[-0.0070822584]]],"_shape":{"Height":3,"Width":3,"Depth":1},"Shape":{"Height":3,"Width":3,"Depth":1}},{"ElementsOneD":null,"ElementsTwoD":null,"ElementsThreeD":[[[-0.028810482],[0.0621602],[0.039452292]],[[0.037039943],[0.053567313],[0.0357738]],[[0.010276532],[0.013867779],[0.028965376]]],"_shape":{"Height":3,"Width":3,"Depth":1},"Shape":{"Height":3,"Width":3,"Depth":1}},{"ElementsOneD":null,"ElementsTwoD":null,"ElementsThreeD":[[[0.14662862],[0.115466096],[0.07706348]],[[0.051933043],[0.09175434],[0.099329814]],[[0.15190747],[0.057455666],[0.07808441]]],"_shape":{"Height":3,"Width":3,"Depth":1},"Shape":{"Height":3,"Width":3,"Depth":1}},{"ElementsOneD":null,"ElementsTwoD":null,"ElementsThreeD":[[[-0.012071823],[0.037401132],[0.022380054]],[[0.034923837],[0.047631323],[0.03543502]],[[-0.021848442],[0.029144868],[0.006210466]]],"_shape":{"Height":3,"Width":3,"Depth":1},"Shape":{"Height":3,"Width":3,"Depth":1}},{"ElementsOneD":null,"ElementsTwoD":null,"ElementsThreeD":[[[-0.109155245],[-0.0011536141],[0.023287393]],[[-0.0710341],[0.035066698],[0.0052231057]],[[-0.05235385],[0.013660371],[0.076853365]]],"_shape":{"Height":3,"Width":3,"Depth":1},"Shape":{"Height":3,"Width":3,"Depth":1}},{"ElementsOneD":null,"ElementsTwoD":null,"ElementsThreeD":[[[0.0426934],[0.029335506],[-0.12815039]],[[0.0787624],[-0.011902769],[-0.0672074]],[[0.06541176],[-0.02244766],[-0.06957803]]],"_shape":{"Height":3,"Width":3,"Depth":1},"Shape":{"Height":3,"Width":3,"Depth":1}},{"ElementsOneD":null,"ElementsTwoD":null,"ElementsThreeD":[[[0.04967735],[0.01803203],[-0.011279898]],[[0.007506985],[0.047481462],[0.07388007]],[[-0.05707534],[-0.045028813],[0.022049734]]],"_shape":{"Height":3,"Width":3,"Depth":1},"Shape":{"Height":3,"Width":3,"Depth":1}},{"ElementsOneD":null,"ElementsTwoD":null,"ElementsThreeD":[[[-0.00040798524],[0.04405978],[0.008986668]],[[0.09505292],[0.10862384],[0.07735522]],[[0.09668884],[-0.033597827],[-0.082465105]]],"_shape":{"Height":3,"Width":3,"Depth":1},"Shape":{"Height":3,"Width":3,"Depth":1}},{"ElementsOneD":null,"ElementsTwoD":null,"ElementsThreeD":[[[0.060897775],[0.027367111],[0.045651436]],[[0.022776838],[-0.0052621895],[0.02791597]],[[-0.06541279],[-0.037544504],[-0.021568958]]],"_shape":{"Height":3,"Width":3,"Depth":1},"Shape":{"Height":3,"Width":3,"Depth":1}}],"FilterGradients":[{"ElementsOneD":null,"ElementsTwoD":null,"ElementsThreeD":[[[0.0],[0.0],[0.0]],[[0.0],[0.0],[0.0]],[[0.0],[0.0],[0.0]]],"_shape":{"Height":3,"Width":3,"Depth":1},"Shape":{"Height":3,"Width":3,"Depth":1}},{"ElementsOneD":null,"ElementsTwoD":null,"ElementsThreeD":[[[0.0],[0.0],[0.0]],[[0.0],[0.0],[0.0]],[[0.0],[0.0],[0.0]]],"_shape":{"Height":3,"Width":3,"Depth":1},"Shape":{"Height":3,"Width":3,"Depth":1}},{"ElementsOneD":null,"ElementsTwoD":null,"ElementsThreeD":[[[0.0],[0.0],[0.0]],[[0.0],[0.0],[0.0]],[[0.0],[0.0],[0.0]]],"_shape":{"Height":3,"Width":3,"Depth":1},"Shape":{"Height":3,"Width":3,"Depth":1}},{"ElementsOneD":null,"ElementsTwoD":null,"ElementsThreeD":[[[0.0],[0.0],[0.0]],[[0.0],[0.0],[0.0]],[[0.0],[0.0],[0.0]]],"_shape":{"Height":3,"Width":3,"Depth":1},"Shape":{"Height":3,"Width":3,"Depth":1}},{"ElementsOneD":null,"ElementsTwoD":null,"ElementsThreeD":[[[0.0],[0.0],[0.0]],[[0.0],[0.0],[0.0]],[[0.0],[0.0],[0.0]]],"_shape":{"Height":3,"Width":3,"Depth":1},"Shape":{"Height":3,"Width":3,"Depth":1}},{"ElementsOneD":null,"ElementsTwoD":null,"ElementsThreeD":[[[0.0],[0.0],[0.0]],[[0.0],[0.0],[0.0]],[[0.0],[0.0],[0.0]]],"_shape":{"Height":3,"Width":3,"Depth":1},"Shape":{"Height":3,"Width":3,"Depth":1}},{"ElementsOneD":null,"ElementsTwoD":null,"ElementsThreeD":[[[0.0],[0.0],[0.0]],[[0.0],[0.0],[0.0]],[[0.0],[0.0],[0.0]]],"_shape":{"Height":3,"Width":3,"Depth":1},"Shape":{"Height":3,"Width":3,"Depth":1}},{"ElementsOneD":null,"ElementsTwoD":null,"ElementsThreeD":[[[0.0],[0.0],[0.0]],[[0.0],[0.0],[0.0]],[[0.0],[0.0],[0.0]]],"_shape":{"Height":3,"Width":3,"Depth":1},"Shape":{"Height":3,"Width":3,"Depth":1}},{"ElementsOneD":null,"ElementsTwoD":null,"ElementsThreeD":[[[0.0],[0.0],[0.0]],[[0.0],[0.0],[0.0]],[[0.0],[0.0],[0.0]]],"_shape":{"Height":3,"Width":3,"Depth":1},"Shape":{"Height":3,"Width":3,"Depth":1}},{"ElementsOneD":null,"ElementsTwoD":null,"ElementsThreeD":[[[0.0],[0.0],[0.0]],[[0.0],[0.0],[0.0]],[[0.0],[0.0],[0.0]]],"_shape":{"Height":3,"Width":3,"Depth":1},"Shape":{"Height":3,"Width":3,"Depth":1}},{"ElementsOneD":null,"ElementsTwoD":null,"ElementsThreeD":[[[0.0],[0.0],[0.0]],[[0.0],[0.0],[0.0]],[[0.0],[0.0],[0.0]]],"_shape":{"Height":3,"Width":3,"Depth":1},"Shape":{"Height":3,"Width":3,"Depth":1}},{"ElementsOneD":null,"ElementsTwoD":null,"ElementsThreeD":[[[0.0],[0.0],[0.0]],[[0.0],[0.0],[0.0]],[[0.0],[0.0],[0.0]]],"_shape":{"Height":3,"Width":3,"Depth":1},"Shape":{"Height":3,"Width":3,"Depth":1}},{"ElementsOneD":null,"ElementsTwoD":null,"ElementsThreeD":[[[0.0],[0.0],[0.0]],[[0.0],[0.0],[0.0]],[[0.0],[0.0],[0.0]]],"_shape":{"Height":3,"Width":3,"Depth":1},"Shape":{"Height":3,"Width":3,"Depth":1}},{"ElementsOneD":null,"ElementsTwoD":null,"ElementsThreeD":[[[0.0],[0.0],[0.0]],[[0.0],[0.0],[0.0]],[[0.0],[0.0],[0.0]]],"_shape":{"Height":3,"Width":3,"Depth":1},"Shape":{"Height":3,"Width":3,"Depth":1}},{"ElementsOneD":null,"ElementsTwoD":null,"ElementsThreeD":[[[0.0],[0.0],[0.0]],[[0.0],[0.0],[0.0]],[[0.0],[0.0],[0.0]]],"_shape":{"Height":3,"Width":3,"Depth":1},"Shape":{"Height":3,"Width":3,"Depth":1}},{"ElementsOneD":null,"ElementsTwoD":null,"ElementsThreeD":[[[0.0],[0.0],[0.0]],[[0.0],[0.0],[0.0]],[[0.0],[0.0],[0.0]]],"_shape":{"Height":3,"Width":3,"Depth":1},"Shape":{"Height":3,"Width":3,"Depth":1}}],"Bias":{"ElementsOneD":[0.0007350745,0.0007350745,-0.0007350745,-0.00073507446,-0.0007350745,-0.0007350746,0.0007350745,-0.0007350746,-0.0007350746,0.0007350745,0.0007350745,0.0007350746,0.0007350745,-0.0007350746,0.0007350745,0.0007350746],"ElementsTwoD":null,"ElementsThreeD":null,"_shape":{"Height":16,"Width":0,"Depth":0},"Shape":{"Height":16,"Width":0,"Depth":0}},"BiasGradients":{"ElementsOneD":[0.0,0.0,0.0,0.0,0.0,0.0,0.0,0.0,0.0,0.0,0.0,0.0,0.0,0.0,0.0,0.0],"ElementsTwoD":null,"ElementsThreeD":null,"_shape":{"Height":16,"Width":0,"Depth":0},"Shape":{"Height":16,"Width":0,"Depth":0}}}},{"LayerType":4,"Dense":null,"Dropout":null,"Flatten":null,"Lstm":null,"MaxPool":{"Shape":{"Height":30,"Width":30,"Depth":16},"Kernel":{"Count":16,"Dim":3},"Stride":2},"Conv":null},{"LayerType":2,"Dense":null,"Dropout":null,"Flatten":{"Shape":{"Height":14,"Width":14,"Depth":16}},"Lstm":null,"MaxPool":null,"Conv":null},{"LayerType":0,"Dense":{"Activation":0,"Shape":{"Height":3136,"Width":64,"Depth":0},"Weights":{"ElementsOneD":null,"ElementsTwoD":[[-0.91496456,0.35735893,0.009494562,0.09288487,0.62138283,0.26658615,0.7142053,1.0383837,-0.7951149,0.43697742,-0.3872786,-0.066140555,0.046592403,-0.6572652,0.6836488,-0.57382196,0.63686424,-0.3483046,0.7827844,0.71340036,0.79679215,0.043426275,-0.23411722,-0.57069,0.31769854,0.42131114,0.74070066,-0.78077453,0.6821967,-0.83487827,-0.25940707,-0.48074687,0.3454334,-0.30613554,0.15516463,-0.7662837,0.3944333,-0.13807914,-0.3385979,0.54825944,-0.14601536,-0.08866165,-0.044625066,0.90931666,-0.12960662,0.67733675,0.18382803,-0.48697388,-0.52956283,-0.7505547,-0.71198285,-0.074713565,-0.2734755,0.7669068,0.7043602,-0.117754735,-0.48001915,-0.2656922,-0.49231035,-1.144519,0.026287526,0.6350309,-0.65483826,0.8149211,-0.45965144,-1.190904,-0.2728759,0.47441345,-0.28168842,0.631295,-0.09601589,0.62349725,0.060336687,-0.59418625,0.5543647,-0.53572124,0.11118143,0.5121726,-1.1379565,-0.14054202,0.56640345,0.41000396,0.52644384,-0.6795896,-0.48568255,-0.04523369,0.5686018,0.24341694,-0.045528032,-0.88116676,-1.3530769,0.1778991,-1.0624987,-0.89493316,-0.8707521,-0.08499719,-0.30796367,0.16737382,-0.98963004,0.06606956,-0.7377711,0.24823228,-0.4464009,0.041338913,-0.28321585,-0.84683764,-0.61527276,-0.62459177,-0.26033327,-0.14399289,0.53867954,-0.5773193,0.26262638,-0.8197166,-0.37927234,0.47507554,0.09726871,-0.6145858,0.006664172,-0.61707264,-0.9162135,0.12055867,0.31311473,-0.8960605,-1.2658938,-0.0227038,-0.3435509,0.44351968,0.62449074,-0.32917097,-0.009372491,-0.48693496,0.26302078,-1.3431954,-0.56141156,0.2929499,-0.54626596,0.2544752,-1.0972804,0.04129291,-0.042317543,-0.9507733,0.58381754,0.2623329,1.0379214,-0.56124943,0.63375515,-0.21422839,-0.5825991,-1.0421996,-0.8447944,-0.6832149,0.26841637,0.2583309,0.65570897,-1.1685818,-0.9893196,0.39265752,0.00953648,-0.35796046,-0.8224375,0.11887615,-1.0337669,-0.41981027,0.4953796,-0.37231046,0.19523473,-0.25122645,0.11051273,-0.5731675,-0.90010697,-0.27022603,0.24961978,-0.25384626,0.1342104,0.7532426,-0.30491254,-0.31213075,-0.6881401,-0.27066636,0.60633194,0.9094244,0.49010497,-0.662441,-0.72965395,-0.91866744,-0.17153527,0.737881,0.28119007,0.40645352,0.62571603,-0.33405766,0.06586657,-0.01402678,-0.44750834,0.6603078,-0.7414284,-0.44202015,-0.6116672,0.968911,-0.84061325,0.8507994,0.99633414,0.8928593,0.26456246,0.2648233,-0.4506016,0.24641235,0.20569503,0.31669208,0.7530362,0.27447024,-0.08917617,0.7790243,0.7733956,0.4422389,0.90389854,-0.5245513,-0.09886464,0.8901785,0.70119494,0.53416055,-0.34555516,0.08877541,0.6910013,-0.70035434,-0.3477948,-0.5741642,0.0666603,0.99953043,0.061996598,0.31798348,0.2728974,0.06608865,-0.81065804,0.026516763,0.7924654,-0.433842,-0.5985968,-0.11866565,-0.5185379,-0.22374164,-0.7867608,0.4811283,0.7565354,0.0891046,0.50706613,-0.87599343,-0.47772387,0.90388614,-0.17474598,-0.63846594,-0.7444518,0.33684376,0.10648555,0.34027714,-0.38074294,0.5365734,-0.09387203,0.09343057,-0.91433215,-0.8432029,0.33612922,0.19745201,-0.5632087,0.5351192,-0.70060015,0.12872063,-0.7892182,0.5727714,-0.101491526,-0.7411758,0.13971123,-0.01672594,-0.91796005,-1.0384985,-0.18105535,0.60120517,-0.57735133,-1.0472703,0.2805854,0.13401234,-0.51678824,0.7673499,-0.47163114,0.576179,-0.4047203,-0.85632735,-0.6477956,0.46424288,0.7950272,-0.77349067,-0.9278038,-0.560039,0.6820251,-0.022598306,0.07281286,-0.48424324,0.16354045,-0.24822667,-1.1837311,-0.9253649,0.4139526,-0.95228076,-0.41756278,0.27525413,0.29876053,0.39064166,-0.41617563,-0.85742617,-0.44319227,0.5193291,-0.06865899,0.601822,0.678765,-0.1326022,-0.25615323,-0.26163,-1.0666152,-0.623836,-0.20002717,-0.6784228,-0.53737044,0.6430162,-0.87997174,0.4448214,0.38531083,-0.94610405,0.16726455,0.42702842,-0.30524984,-0.0077845915,-0.26207408,-0.9973397,0.67526215,0.008393249,0.35088256,0.8394475,-0.8886926,-1.0287241,0.053124446,0.9186004,-0.88507676,0.5357757,0.6378757,-0.670433,0.056065053,0.024976991,0.24843967,0.10398386,-1.0819043,-0.60818917,-0.8501884,-0.8261684,-0.54904765,-0.82432026,0.34041893,0.046845857,-0.7561235,-0.77177095,0.52050364,-0.3708158,0.82125777,-0.9228446,0.6388949,-0.43594277,0.23923974,0.04035806,-0.39467472,-0.5650914,0.95302856,-0.5899621,-0.31378248,-0.11201131,-0.04033416,-0.29343286,0.34160763,-1.0277147,-0.19592713,-0.8871016,0.5450037,0.27902848,-0.86215293,0.06988745,0.49002534,-0.8659834,-0.024858307,-0.2607572,0.6809883,0.1953548,0.61138535,-0.051370744,-0.72947466,-0.3462953,0.087720804,0.2826849,-0.6449313,-0.9991455,0.6048665,-0.52320105,0.5302054,0.9529078,0.7334103,-0.54488903,0.5153586,0.30228525,0.9399384,0.14232099,0.9066834,-0.0921146,-0.7208805,-0.56334794,-0.77424824,-0.87801,-0.39773634,0.62908226,-0.53404886,-0.36649957,-0.80905926,-0.37290612,0.24767587,0.9468469,-0.26856604,0.092031054,0.3540487,-0.364706,0.7736895,0.13544573,0.431044,0.52714217,0.22253692,0.7478903,0.8937801,0.08401896,0.33000308,0.86860234,0.025422497,-0.75880516,-0.059564915,0.4585635,0.93686163,0.6262046,0.22914898,0.1813439,0.7405345,0.7015082,0.40534094,1.0202601,0.25337383,-0.2150141,-0.25052297,0.9769104,-0.72414654,1.0046453,0.87376547,-0.18478361,-0.052363325,0.653516,0.099762954,0.44771534,0.4064548,-0.30981088,0.695259,-0.6196117,0.30245262,0.26010934,-0.5858008,-0.5687972,-0.25408491,0.60608417,-0.7798853,0.34646168,0.12679037,-0.7878422,0.42137036,-0.0960533,-0.47071302,0.7874711,-0.18177283,0.61174035,-0.0032697069,0.4930983,-0.87875193,0.3299532,0.5063965,0.6416837,-0.59931344,0.08260746,0.74386704,-0.52159095,-0.2329402,-0.22272125,-0.25087243,0.6852626,-0.33694836,-0.56485474,0.5069102,0.83029926,-0.76166534,0.011306238,0.62298834,-0.27188382,-0.70660216,0.3864384,-1.1072686,0.5468842,0.020073127,-0.41808915,0.45176098,-0.4312188,-0.7134891,-0.46922824,0.43126035,0.04348778,-1.0550895,-0.16513272,-0.034744117,-0.06836562,-0.55399317,0.14192966,-0.29920536,-0.66075194,0.34520248,-0.7147203,0.3375225,-0.96111923,-0.03543295,-0.051478673,0.7148006,-0.7418053,0.20569928,-0.26008388,-1.0072135,0.023720467,0.84688324,0.08020513,-0.9208201,0.49963573,0.46958357,0.28627482,-0.13625617,-0.16208704,0.17743981,0.639493,0.123468615,-0.5216514,0.20067573,0.48185676,-0.03518252,0.8025744,-0.7945937,0.8509147,-0.02205618,0.48973593,-0.12042905,-0.7524677,0.068297125,0.20755881,-0.18181409,-0.65192753,-1.0789075,0.09135886,0.112416245,-0.11060941,-0.55192184,-0.7942144,-0.23870973,0.20536555,0.23191072,0.7997047,0.2976573,0.67368835,0.28481722,-0.80610114,0.06552974,0.24289851,0.20577888,-0.5794567,0.17299442,0.69034183,0.65379137,-0.42695934,0.8743477,-0.73670244,-0.36582792,-0.87916416,0.32335585,0.1829134,-0.9214273,0.83062035,-0.7015333,-1.0009363,0.12662186,0.9921144,0.45605236,0.26443315,0.7108899,-0.7106833,-0.44468448,-0.36894962,-0.62852615,0.9012274,0.103241704,-0.05667658,-0.6782187,0.22080754,-0.9252193,-0.116155475,-0.7793294,0.8078011,-0.83316296,-0.2724074,0.18830787,0.85982776,-0.3321054,-0.1844328,-0.6442808,0.23443288,-0.7103043,-0.6222085,0.8323818,0.38682383,0.24030316,-0.49569875,-0.54595757,0.67792386,0.27127385,-0.68459165,0.12619779,-0.5322448,-0.4870973,0.67355645,0.26846397,0.07998418,-0.90134656,0.25550848,0.5214111,-0.63239574,-0.05813761,-0.13729773,0.12872496,0.17196621,1.0042179,-0.8227084,-0.64653647,-0.6403653,0.56165403,-0.38097456,-0.050697222,-0.18052812,0.73834884,1.0468768,0.9814773,-0.1655303,0.9762826,0.6647961,0.9823439,0.27396443,-0.67485845,-0.29722947,-0.13399306,-0.23280971,0.58139044,-0.29613832,-0.5467384,0.3562489,-0.4592173,-0.11188984,-0.19521731,-0.7894906,-0.18941398,0.8327327,0.94137174,0.04568309,-0.87332714,0.550995,0.78921556,0.68895483,0.8388099,-0.02907432,-0.20354728,-0.42080206,-0.0051074945,-0.57723445,0.10266487,0.6128012,0.12876102,0.14251211,0.60043913,0.30130154,-0.2502941,0.84243476,0.63708746,-0.6445025,0.48191002,1.0427703,0.8316651,-0.3358059,-0.24362028,0.397031,0.5258918,-0.4406296,-0.5890151,1.0387,0.8494921,-0.6842437,0.080171175,0.16581617,-0.093530715,1.0368125,-0.19963965,-0.0012544942,-0.8059453,0.09011622,-0.6227392,-0.46558982,-0.32658762,0.15580669,0.71007997,0.6342318,-0.89181346,-0.79140913,-1.0348406,0.33617944,0.49285406,0.24961144,-0.38571924,-0.22747514,-0.40946734,-0.9771999,-0.56807643,-1.0395243,-1.0792646,0.9500774,0.8995588,-0.04001192,-0.42355067,0.1818369,0.6379847,0.86611843,-0.9182509,-1.0431873,0.14209987,0.75775313,-0.69078547,0.3679919,0.6925796,0.08485361,0.24315916,0.849179,-0.16868903,-0.28851804,-0.8815773,0.50857913,0.4571422,0.23561761,-0.194461,0.51369935,0.12134188,0.24938968,-0.0904435,-0.80488163,-0.025110587,0.40347242,-0.008373811,0.33734134,0.2015223,0.90075415,0.40173772,0.83607805,0.6696439,0.84481496,0.80158085,0.5729623,-0.49847856,0.04922537,0.92072505,0.5735005,-0.7244455,0.13559759,-1.0781176,-0.73903674,-0.12030237,-0.47616234,-0.7150483,0.78514016,-0.2934356,-0.46493614,-0.6177524,0.9470697,0.25747728,-0.4180467,0.93609273,-0.08793856,-0.81971115,-0.5723121,-0.083013445,0.8566767,-0.043414664,-0.2601037,-0.87990004,0.99727315,0.5883219,0.6832198,0.20491715,-0.32015306,0.27661395,0.4320539,0.80409694,0.86688524,0.68161654,-0.11650143,-0.74175,-0.360131,-0.05707993,-0.6582264,0.34048146,0.09712272,-0.41557926,-0.91658825,-1.177078,0.805355,-0.006992363,-0.28373405,-0.00225079,-0.043769233,0.15533733,-0.6649575,0.97382945,-0.6573715,0.55284375,-0.6368426,0.93330026,-0.59218925,-1.015871,-0.3637897,0.08007583,0.756414,-0.8713014,-0.61619604,-0.4463793,-0.9402037,0.35601687,0.50843644,-0.39437357,-0.7662941,-0.299124,-0.9698835,0.24135737,0.50468636,-0.0768007,-0.91777104,0.56037134,-0.4464683,0.27053574,0.5905201,0.67603964,-0.98139834,-0.35859245,1.0598578,0.5527277,0.9972362,-0.010761011,-0.6665801,-0.23626968,-0.6595962,0.7476003,0.1607211,0.9744956,-0.21443203,-0.42648774,-0.6024264,-0.19402188,0.17731547,-0.43056077,-0.2713118,0.165169,-0.12803526,0.13869663,-0.4050354,0.37381536,0.91359043,-0.0339238,0.05743896,-0.70840406,-0.47626874,-0.6551695,0.6885662,-0.4326276,-0.47838035,0.5187189,1.0264524,0.119124725,-0.24603888,0.28058496,0.21847595,0.43629605,-0.1846576,-0.574359,-0.30412516,0.4112209,-0.48763967,0.9593324,-0.41532773,1.0422213,0.8642405,0.7987836,0.3510539,0.25688976,0.11477765,-0.8215369,0.6167433,-0.037964523,0.9993229,0.14459342,-0.2590999,0.10972395,0.84282976,0.20659521,-0.46358684,0.7766664,-0.40899816,0.94988954,-0.49886295,-0.5029947,0.9957166,-0.45916373,0.30053636,0.86910796,0.8564759,-0.606061,-0.46296895,0.75835276,0.21629433,-0.2806026,0.20431368,-0.55905247,0.063039556,0.83973384,-0.8691435,0.76758,-0.18806136,-0.84631455,0.0629817,-0.80824137,0.29743636,0.87149864,-0.8765613,0.9152773,0.44151947,0.48737758,0.21500506,0.95305467,0.89907676,-0.6696032,0.3419906,-0.28805634,0.15850022,0.9466436,0.11915565,0.61585367,-0.056498997,-0.36686698,0.58838344,0.24543309,0.6941569,-0.06379312,0.4433003,0.08426515,0.8548841,0.24283515,-0.14133847,-0.2681449,-0.5580064,0.71685034,-0.6938352,-0.6646734,0.13698506,-1.0103196,-0.46247345,0.5633604,-0.0097186295,-0.8159152,-0.70789057,-0.52887774,-0.27072352,-0.12756242,-0.41339287,0.34197962,0.07387202,0.002039228,-0.44336638,-0.29469222,0.4087592,-0.1788227,0.263452,-0.0057465355,0.9067021,0.47283897,-0.82579285,0.49255106,-0.7649673,-0.54893124,0.37729523,-1.0382515,-0.23198973,-0.33006644,0.805313,-0.36505288,-0.37618652,-0.82788676,1.057296,0.8096372,-0.7686008,0.56272763,0.7229605,-0.10536391,-0.4210817,0.91602004,-0.70526564,-0.42323455,-0.6013337,0.14801247,-0.48697153,-0.71050733,-0.30953658,0.44014898,0.8400534,0.51541847,-0.54391444,-0.51533574,-0.7299972,0.6767492,0.037644405,0.4035019,0.1709649,-0.35000753,1.0298134,0.04322357,0.58559453,-0.3605961,0.8410397,-0.10662189,-0.44678557,-0.55500543,-0.6362828,-0.22490144,-0.315732,-0.6034222,-0.039912082,0.9232431,-0.18598329,-0.5471909,-0.58434725,0.17669897,-0.60038346,3.0075375E-05,0.082773425,-0.49902058,-0.2307398,-1.3556916,-0.79346275,0.0561187,0.27675697,0.8377471,-0.27519265,-0.51424766,-0.16926119,-0.8878874,-0.18781438,0.22417715,0.58667845,0.12183968,0.278453,0.37054822,0.57865816,-0.84417444,0.83215183,0.3099103,0.5445429,0.90284365,-0.57426065,0.44825086,0.5014797,-0.942602,-0.21288262,-0.60882276,0.11019195,0.7393978,0.6129189,-0.3547414,-0.87679696,-0.33509007,-0.855896,0.5114235,-0.8896154,-0.797852,-0.6149542,0.066655256,-0.77080315,0.42362118,0.6650394,0.5489059,0.27557114,0.8695184,-0.7719664,0.9029556,0.9433814,0.89517426,-0.78626424,-0.27289635,0.6531004,1.1918265,0.86484516,0.7221757,0.5295367,-0.33043402,-0.59000367,0.7475488,1.1773096,0.76568645,0.29005155,0.73240274,0.9255139,0.66812396,-0.8421209,-0.02537311,1.0762904,-0.6430069,0.18581007,-0.36490878,-0.3784651,-0.28084913,0.9325531,-0.11797242,-0.36548322,-0.34809706,-0.2635608,0.30889103,1.0528117,0.14791496,0.5324159,-0.16363885,0.15952536,-0.45910254,1.021358,-0.31752065,0.46316344,0.9943996,-0.4357346,1.0555934,-0.56731987,-0.5563306,0.91355336,0.03570959,0.3926448,-0.551323,-0.009311237,-0.6781935,0.63711244,-0.05582836,-0.94578224,0.034958236,-0.6890062,0.08735109,-0.65917325,-0.29847944,0.4695735,-0.82282156,0.95357096,-0.09895328,-0.17179441,0.63796103,-0.16998188,-0.0046344274,-0.07977654,-0.8754115,0.05967533,-0.42762673,0.9049118,-0.45273522,-0.80178905,0.373029,-0.8962283,-0.75880855,-0.6674435,0.18776481,0.095536985,-0.6440742,0.36316654,0.4120119,-0.5736822,0.2134571,-0.9177578,-0.44602102,-0.9269797,0.63109016,-0.60316133,-0.61016554,0.88802356,0.54217464,0.53188485,0.30779144,-0.49253958,-0.1424735,-0.78911865,-0.4891765,-0.7941197,-0.08544277,-0.51835257,-0.39625278,0.37793663,-0.9812547,0.5817508,-0.66078615,-0.5609354,0.8919518,-0.74715436,-0.49524742,-0.6947374,0.5258053,0.7334618,-0.45686537,0.47463563,0.32292172,-0.31904814,-0.5530878,1.1779865,-0.29204795,0.8032306,0.2603222,0.82188797,0.44984058,-0.12413881,0.17203955,0.54855376,-0.30887425,-0.19481826,-0.7155225,-0.52647895,0.070916995,-0.80125856,-0.46881706,-0.74581236,0.20625365,-0.025562858,0.44016272,-0.49343184,-0.39599022,0.6078409,-0.49134752,0.06646268,-0.268856,0.16118252,-0.09793249,0.27130055,-0.7052112,0.7534862,-0.73049074,-0.5070158,0.37996843,-0.3388895,-0.66114795,0.79639184,0.23621097,0.83043694,-0.4258245,-0.73649824,0.36881906,0.4669033,0.7040137,-0.6130485,0.47654715,0.05230947,-0.88707423,0.7734934,0.3156949,-0.9199684,0.598017,-0.74694,0.8755822,-0.48381084,-0.8358391,-0.9401958,-1.0600519,0.5364391,-0.74972975,-1.1482625E-06,-1.0865105,-0.13821927,-0.1930929,0.25901848,0.7046669,-0.45138443,-0.17908636,0.051036306,-0.86982226,-0.382805,-0.98735154,0.7577696,-0.91731364,0.101325065,0.66908145,-0.85303533,0.6956992,0.22446272,-1.0065901,-0.20682831,-0.8386215,-0.6793574,0.40042585,-0.8568457,0.5633654,0.8442477,0.18346041,-0.90900195,0.3961715,0.79793084,-0.036526684,-0.6758597,-0.18836385,0.20289023,-0.004817684,-0.40155295,-0.8757015,-0.9910436,0.5098184,0.6268468,0.07177635,0.4869676,0.20172682,-0.7271452,0.69952714,-0.38148457,0.17028826,-0.5703756,-0.8104177,-0.045319334,0.82346946,0.8813125,0.18009178,-0.6368472,0.37732565,0.65135795,0.74695873,0.9996903,0.45496106,0.54592264,-0.5002805,-0.50169086,0.3868271,0.75849926,0.93759906,0.026645819,0.46851295,0.05182472,0.120261215,0.21676578,0.6113899,-0.7338032,-0.6991976,-0.06461169,0.7577229,-0.3053041,0.64721215,-0.6247356,0.91571975,0.16758434,1.0392836,-0.7035435,0.26731935,-0.016618965,0.25524202,0.20567942,-0.3362309,0.81870264,-0.5489175,0.61417425,-0.2335813,0.80278635,-0.10416403,-0.66819465,0.3288698,0.96914047,0.6373561,-0.8887509,0.38017675,-0.3235063,-0.42604163,0.12659173,0.6784719,0.7784292,-0.666193,0.20726758,-0.29345354,-0.87527466,0.3541515,-0.91889465,0.8656817,0.8648749,-0.68098044,-0.024378313,-0.7639612,-0.40977785,-0.66821206,-0.5103833,0.8052734,0.3412411,0.8818487,0.83698213,0.3182302,-0.61768377,0.28491265,-0.14111754,0.7813089,0.61718863,-0.8431075,-0.39849985,-0.46394345,-0.8053225,-0.9243458,-0.5477933,0.54660827,0.09747378,-0.85710573,0.057291303,-0.7721996,-0.93304825,0.7132438,-0.08976662,1.0438036,-0.37696218,-0.8581521,0.026960328,-0.8545559,0.28161213,0.4350518,1.0144261,0.26720947,-0.36470154,1.21062,0.9894035,-1.0215783,0.23911808,-0.5378736,0.83245236,0.36409232,-0.75722957,-0.84586656,0.892123,1.0264323,0.08496025,0.21550077,-0.0751544,0.29238912,0.41827556,0.06052427,0.5094149,-0.65595233,-0.7662065,-0.6150984,0.6321137,-0.53333294,0.1645124,0.89977103,0.25013623,-0.89988697,0.418588,0.31579775,0.7730201,0.3202439,0.17667614,0.8756726,-0.5628418,-0.7371552,0.7854836,-0.68247014,0.7545355,-0.52385956,0.8466806,0.7203133,-0.8679252,0.13489111,-0.62060094,0.64503205,-0.20162687,-0.238989,-0.8498866,0.31382105,0.61089206,-0.8367214,0.3975694,0.7208293,0.8704857,0.17536871,0.14173031,0.19032747,0.5122837,0.28445417,0.63260335,0.5361038,-0.6922623,-0.8804248,-0.68013,0.054053195,-0.04831634,0.35150248,-0.6925005,-1.2290815,-0.05493597,0.11653111,0.6010099,-0.11811002,0.09467555,0.52568644,0.621098,-0.8805632,0.781951,0.42082953,-0.0021992787,-0.33624294,-0.6399212,0.29971033,0.5161283,0.060194228,-0.7036093,-0.24577159,-0.3539484,0.23030505,-0.0022252044,-0.60869557,0.69836813,-0.90856814,0.13131943,0.15960015,-0.9899184,-0.715358,0.30740127,0.19314228,0.53652966,0.19695643,0.1731031,-1.1713022,-0.54780334,-0.33751285,-0.4139534,-0.7467002,-0.34466687,-0.42131764,0.009435446,0.70245266,-1.1201782,-0.34238535,-0.58161575,0.23657957,-1.0404361,-0.05113301,0.29836375,0.57205045,0.42350352,-0.86660445,0.73147327,0.18511029,0.33866706,-0.87991476,-0.9365233,-0.57887584,-0.37084728,-0.28986305,1.0088015,-0.33578464,0.7594675,0.22349726,-0.56530213,0.798992,0.45152408,-0.06496406,-0.71187127,0.3569389,0.8196238,0.95729405,-0.13344716,0.62767625,0.078908734,0.8930799,-0.3441641,-0.29049066,-0.8558479,0.4907159,0.6841842,0.35497972,-0.5519768,0.7766424,-0.76646453,-0.2880173,-0.7203997,0.48220956,0.36739278,1.0094879,0.87481016,0.6305851,0.61282814,1.0134432,0.015981432,-0.11992829,-0.91197485,-0.7530496,-0.38463056,0.3015294,-0.46786934,0.39242688,0.8346457,0.19013095,0.8386698,-0.040104795,0.098780304,-0.43112403,-0.30701378,0.048253693,0.2484559,0.6782601,-0.06449693,0.91398275,0.5344673,0.728631,-0.12082252,-0.21687965,-0.37467715,-0.6918721,0.89530873,-0.07129078,-0.29664683,-0.15756005,0.4459249,0.22828642,-0.54823685,-0.9049444,0.29785147,-0.13899411,-0.24573103,-0.6593426,0.02847957,-0.8159497,0.90460837,-0.20350853,-0.15483011,1.0138892,-0.115020946,-0.36349767,-0.8688708,-0.9318594,-0.84894305,-0.04237898,-0.03972898,0.5938481,0.24843116,0.84154874,0.52377915,0.41963866,0.2442954,0.33095822,-0.14849891,-0.12126297,-0.04692724,-0.5190278,0.20000738,-0.79535645,0.90946263,0.2784185,-0.3086406,-0.24092047,-0.6185426,0.8593977,0.12324936,-0.96535474,0.53331083,0.43726966,-0.67104936,-0.9253218,0.66184646,0.37633514,-0.06406039,-0.24112354,-0.5799505,-0.8467354,0.11050786,0.82907635,-0.5526152,0.15627514,1.0138221,0.5222271,0.49431342,-0.30989733,-0.29225516,0.6988718,0.99068296,0.98553145,0.31232795,0.51380783,0.4949395,-0.6815406,-0.61027753,-0.44607246,-0.49903718,0.9909156,-0.5313464,0.26257733,-0.4436053,-0.5159996,0.81773335,-0.45065856,-0.84908885,-0.44447994,-0.78309214,0.19246979,0.30603465,0.32485583,0.041442696,-0.780686,0.013598957,0.4762042,0.055913948,-0.024258813,0.3440755,0.6758924,-0.6428649,0.32116935,-0.93563783,0.1388986,0.38987923,0.65653265,0.30670348,0.5523114,0.0065812645,-0.4099583,0.98259723,0.71161705,0.28869507,-0.023785736,0.7277665,-0.7509269,-0.6281074,-0.4442469,0.032698635,-0.2759726,-0.96153605,0.7819898,-0.7311882,-0.98558605,-0.6370793,0.56739354,0.30257213,-0.16346604,0.79800975,-0.16182156,-0.8605539,-0.80636543,-0.67377675,-0.9196166,0.016773682,0.6484851,-0.9446593,-0.18826722,-0.010323959,0.7535904,-0.87940955,-0.25681195,0.44752225,-0.45372042,0.24613163,0.677212,0.14671838,-0.6052951,-1.1442593,-0.59708697,-0.80503064,-0.19993134,0.5400004,-0.2715355,-0.33947104,-0.3682967,-0.5905755,0.62579197,-0.21005034,-0.82567436,-0.29042515,0.4447977,-0.42828575,0.6772899,0.037189007,0.7225004,0.30267933,0.6073603,0.6242825,0.42143568,0.6107304,-0.89196384,0.7852129,1.0706916,0.27467623,-0.38294265,0.51447445,0.42858514,0.015082391,0.1407967,-0.84499234,0.9369041,0.9233924,0.8663054,0.82499516,-0.3784013,0.17835793,-0.19305715,0.29398504,-0.7180203,0.79638743,0.70063865,-0.60476714,0.8529516,-0.8127437,-0.49536163,0.8045059,0.40038824,0.015024972,0.44060773,0.06337948,-0.92697847,-0.65944624,-0.0915839,-0.5941379,0.41215518,-0.35471073,-0.65278304,-0.19220077,-0.79546374,-0.8307497,-0.5777385,-0.7711775,-0.45812476,0.039368197,0.9972277,-0.085170425,-0.6723491,-0.05392468,-0.38923585,0.33209562,0.5858135,-0.3826302,0.74455535,0.34872308,-0.6045945,-0.12717314,0.5180096,-0.49157712,-0.5888868,-0.34953228,0.476077,-0.9653319,0.5800075,0.4537328,-0.33986965,0.83595586,0.055855446,-0.82721627,0.8855857,0.68681264,-0.84156793,-1.0637798,-0.34352008,0.11501166,0.614199,-0.86578625,-0.1423178,0.1869768,0.58315474,-0.37445462,-0.98516524,-0.73872864,-0.96386075,0.5641406,0.039328378,-1.0005548,0.858163,-0.19923526,0.59823984,0.6000413,-0.3255752,-0.015411318,0.076518826,0.6541837,0.016432334,0.05596876,0.7890441,-0.029960508,0.6523192,-0.67767537,-0.3765056,-0.7988198,0.7369385,0.031042315,-0.7110533,-0.9802452,-0.9780869,0.26019588,0.20854804,0.9164772,-0.467642,-0.87094086,0.41121948,-0.0793543,-0.012535756,-0.12541911,0.17071737,0.288685,0.95523083,0.49381566,0.5406272,-0.9465707,-0.4060098,0.7273807,-0.43289825,0.8818547,-0.54826605,0.12537175,0.30446002,-1.1052887,-0.8739214,0.9122942,-0.04790012,0.7686802,-0.27850708,-0.78708905,0.65749526,0.99045527,0.23415002,-0.3262811,-0.06919395,-0.34552905,-0.22710264,-0.72080874,-0.7788687,0.34192884,-0.36944202,0.12784542,-0.007891796,-0.702098,0.56550425,-0.61349976,-0.42974868,-0.45487016,-0.23505159,-0.33539885,-0.31253386,-0.58295876,-0.15712258,0.5340038,-0.056647267,0.275125,-0.9007322,0.20730834,0.8753266,0.6615932,-0.15424769,0.6254191,0.8707272,-0.4831923,0.467654,-0.7734519,-0.081449285,0.83992344,0.81639695,0.06136515,0.30909047,0.46738958,-0.57997054,-0.15354449,-1.0319443,-0.30229244,0.49115747,-0.8156912,0.5421961,-0.30518392,-0.07385957,-0.64182866,0.79141325,0.262172,-0.68238664,-0.517605,0.51758385,-0.95204884,-0.19489855,0.126534,-0.21559483,-0.3018704,0.29621208,-0.10834541,-0.79369944,-0.71068186,-0.9853453,0.6403652,0.20523988,0.42560393,-0.15074256,-0.9904661,0.11242374,0.4345148,-0.44640177,-0.29401016,-0.94060576,-0.981886,-0.11274943,0.43357468,0.18328324,-0.0999641,-0.6988986,-0.017896503,0.9933125,0.23534936,0.09967253,-0.6224262,-0.13572344,0.5703397,0.10424199,0.16239741,-0.70765936,-0.4606115,-0.8677973,-0.45232558,-0.233517,-0.22278556,0.7302536,0.43366033,0.7290614,-0.569459,0.6234716,-0.3069141,-0.7778945,0.7418958,-0.07374114,0.096028,0.44986215,0.29007462,0.008634418,0.7945854,0.5837679,-0.5965525,-0.47141102,-0.8721792,0.52643967,-0.49303365,0.46713826,-0.09933867,0.3850177,0.6007859,-0.41922992,0.4411511,0.5451127,0.38757777,-0.84053785,-0.353035,-0.45722732,-0.3680326,-0.18732458,0.3023683,-0.4516156,0.23042198,0.36568886,0.13614415,0.69566655,0.7703115,-0.35944808,-0.34460565,-0.81020206,0.94983214,0.7709933,-0.7046821,0.6643073,0.18374577,-0.22368805,-0.033442862,-0.039072286,0.16690136,0.7837418,0.5296535,-0.94740814,1.0191882,-0.10973976,-0.66695243,-0.5903938,-0.55243045,0.39881784,-0.660902,-0.82300615,0.7153113,0.29561487,0.10405347,-0.49223065,-0.031468708,-0.8536397,-0.5001231,0.43734658,0.44021422,-0.7157582,0.10135127,0.087103,0.42815086,-0.69050777,-0.21998769,0.52714235,0.49050567,0.91135466,-0.52013713,-0.14206937,-0.22305542,0.014532266,-0.7226372,0.4338177,0.27039394,-0.45057628,0.5982723,-0.103564166,0.2768147,-0.65251184,-0.5918643,0.7488261,-0.5332422,0.39442566,0.78714275,-0.056327518,0.30182362,-0.2088908,0.8149227,0.6253575,0.22852811,-0.12086492,0.98129094,-0.17949848,0.56161726,-0.9061325,0.6363476,0.37284788,0.083705515,1.029619,-0.9349871,-0.4237344,-0.49145493,0.19850272,0.07184923,-0.61057186,0.6615249,-0.7597938,0.97240204,-0.35280398,0.20684375,0.90660226,-0.35225144,-0.99386936,-0.34338468,0.0026941579,0.44155255,-0.3547589,0.47871688,-0.06550564,0.15093377,-0.52565867,0.18276754,0.5908349,-0.14575633,0.68515605,0.2959173,-0.2524559,-0.34225342,-0.38388765,0.8151639,0.82325083,-0.6949943,0.2112902,0.38189116,0.40289792,0.4677152,0.3045901,-1.0696166,-0.65587443,-0.6737397,0.6095144,-0.7903765,0.3780982,-0.58240765,0.5260376,0.00042892684,-0.90493745,-0.053052876,-0.75138444,0.36471698,-0.19677709,0.016065681,-0.76821303,0.18647975,-0.45845214,-0.24266097,-0.19489412,-0.4501318,-1.0511279,-1.1285484,0.5874794,-0.5361132,-0.4682566,-0.45582455,-0.49641192,-1.1866131,0.24580543,-0.521785,-0.33304164,-0.54975235,0.27094066,-0.6747387,0.19830969,-0.96565515,0.2770742,-0.81981987,-0.7949852,-0.7113062,-0.83919466,-0.053578537,0.26237828,0.2898054,0.82485634,-0.8227855,-0.9227725,0.92696047,-0.9775928,0.7494027,-0.2440844,0.3557835,0.17828606,-0.1300536,0.16020067,0.51033616,-0.004822121,0.90483344,0.7721848,-0.717674,-0.6150931,1.0407312,0.54514223,0.74956846,0.42041022,0.03679432,0.93229127,0.09311021,1.0056485,1.0248101,-0.12693731,0.47588313,0.24329437,-0.5066746,-0.34204787,-0.08334086,-0.87547,-0.60499626,-0.2800276,0.56825787,-0.38341644,0.0034434071,0.30785385,0.27424973,-0.6379085,-0.005865226,0.89671224,-0.80674744,0.1302736,-0.32565048,0.87084603,-0.43783212,0.1297983,-0.7043296,0.84070116,-0.39665025,0.5708374,0.56764865,0.86223876,0.37759534,0.8827102,-0.4671949,1.093528,1.0498118,0.22097982,-0.6121823,-0.93454516,-0.48703325,0.3976292,-0.8255874,0.7309912,0.20719434,-0.97548425,-0.23317246,-0.0097029405,-0.093760565,-0.6186029,0.4162119,0.10059133,-0.6237748,0.61132574,-0.454356,0.64716494,0.85170466,-0.7301711,-0.9078086,-0.8339095,-0.4978121,-0.46317354,-0.057508335,-0.7102958,0.94063056,0.85126185,-0.67242086,0.048896294,-0.14778745,0.57169867,-0.4657049,0.46956277,-0.75640875,-0.39394945,0.6889746,-0.72936314,-0.69776297,-0.2868336,-0.5875247,0.8462606,-0.32371596,0.7005842,0.77709955,-0.8779459,0.7557304,-0.5705093,-0.7950608,-0.15879288,-0.9574289,-0.7042321,-0.4651323,0.45081055,0.03043703,-0.6719744,-0.17137533,-0.017491728,0.082064845,0.379058,0.07558263,-1.0124726,-0.44403973,-0.4494011,0.8573884,-0.48462754,0.32966277,0.5339991,-0.07600886,0.7112038,0.43886492,-0.5012614,-0.8809527,-0.8850153,0.12815256,0.38299266,0.39633057,-0.12913544,0.7805529,0.07264,-0.18919209,0.091763206,-0.48582482,0.3973931,-0.9516669,0.7334738,0.7589796,-0.7637821,0.9267546,0.8223243,0.9415226,-0.90175915,0.053291038,-0.6281595,0.09073063,-0.959716,-0.36096355,0.18234794,-0.123358,0.87301767,-0.8935973,0.44960177,-1.1879374,0.50938755,-0.21278413,-0.8359232,-0.889827,-0.5364703,0.1437356,0.48636636,-0.5563258,-0.723866,-0.20330165,0.5975637,-0.5270951,-0.64290744,-0.9908308,0.04251776,0.21533945,-0.25140667,0.25905186,0.6352978,0.71394813,0.6457638,-0.2789667,-0.5780958,-0.0115818465,-0.91215926,-0.7356364,0.37400684,0.41459924,-0.6923496,-0.34103808,0.8628592,-0.14484407,-0.59904176,0.41057718,0.403584,-0.53452784,0.3088226,-0.10819849,-0.41364166,0.07232746,0.014171674,-0.6166588,-0.76795125,-0.20293054,-0.07670888,-0.2936017,0.76638687,0.85421556,-0.19509465,-1.0774001,0.5855771,0.033713847,0.69659984,-0.02066482,-0.34799096,-0.15614904,-0.3807145,-0.90092695,-0.5219032,0.43097177,0.20282161,0.38784513,0.56227326,0.47564453,-0.12732399,0.93751043,0.25058565,-0.14836827,0.88825536,1.0233008,0.6903923,0.37924808,0.6221067,-0.35032645,0.8005737,0.100155115,0.7891791,-0.6399882,-0.14124776,0.30943763,0.7713615,-0.80070704,-0.85799414,0.074184924,-0.77546245,1.0298003,0.40838093,-0.17083967,-0.740985,-0.6676863,0.14286241,1.0413967,-0.31674471,-0.18062362,-0.49179703,0.9329643,0.36848345,-0.6616758,-0.02013436,0.90866214,0.35094523,0.5323674,-0.82558566,0.695707,0.4748121,0.11530968,0.7045888,0.6651934,-0.45828202,1.0171505,-0.89298755,0.033568166,-0.5685768,-0.18712452,0.5407539,-0.14702296,-0.39787775,-0.5856645,1.0681553,-0.58831006,0.6955739,0.21203178,0.22207718,0.8902085,-0.71708596,0.4486506,0.7291446,-0.4173906,0.89693695,-0.38536984,0.26221782,-0.42519638,0.6863515,-0.28645265,1.0566837,-0.09219242,0.9702921,-0.61193895,0.46534464,0.81073356,0.7528789,0.27682823,0.43942282,0.6642745,-0.35900584,0.9750408,-0.16101678,-0.7993329,-0.8416901,-0.7363058,-0.57060266,-0.29863793,0.41610986,0.6044495,0.9024222,-0.32227534,-0.06041112,0.30605352,-0.117794216,-0.79625344,0.9107661,-0.3357714,0.8496407,0.8329407,-0.7741394,0.6577605,-0.33369735,0.36415768,-0.62428945,0.52526605,-0.16167067,-0.86001265,0.78851074,0.2725147,0.42267174,-0.4284046,-0.79473084,-0.78292435,-0.62613934,0.29776195,-0.6629376,-0.34325656,-0.74625975,0.1845122,0.87765145,-0.098224945,0.14650002,0.97606003,0.4694726,-1.0200353,0.055966526,0.16599493,0.022807594,-0.98391896,-0.52696854,0.013053011,0.17780344,0.513691,-0.7698394,-0.82432187,-0.33928353,0.6204384,-0.97861767,-0.629988,-0.2624867,0.52359897,0.92026705,0.40019205,0.6620602,0.21369374,0.7534769,0.035874512,0.5587844,0.41170108,-0.2630282,0.7523429,-0.99498445,-0.37012655,-0.96848935,0.11302167,0.6954076,0.63083375,-0.8980432,-0.3447033,0.5577838,-0.011449187,-0.68667805,-0.8387248,0.03361977,-0.12097609,-0.26756582,-0.59301573,-0.2748645,0.31291446,0.6253964,0.5147215,0.4925435,0.2633879,-0.14833122,-0.7462977,0.6657505,0.5141022,0.18477242,-0.72385323,-0.8534334,-0.89931256,-0.3701073,-0.24310747,-0.2804123,0.5031573,-0.73106235,-0.093371294,0.77301407,0.5550158,0.76735115,-0.15218721,0.14310402,0.41511524,-0.98039865,0.39876065,0.20694622,0.3610631,0.52105045,0.79027426,0.24317679,-0.2247248,-0.16619867,-0.51878065,-0.521427,-0.7705901,-0.6020162,-0.28561136,0.97216946,-0.837202,0.33615395,-0.8501023,-0.14381166,-0.10805657,0.15374114,0.43041575,-0.42480797,-0.8937048,-0.41660804,-0.4438331,0.59596103,0.3151681,-0.46156225,-0.6696095,0.92054075,0.42709482,-0.5687663,0.34757093,0.34218666,0.08134365,0.54328066,0.061446235,-0.38151956,0.8778955,0.81821495,-0.28534004,-0.8802357,-0.084753096,0.14114055,-0.1842902,0.9119491,0.7321865,0.39209786,-0.11488875,0.8331284,0.68169475,-0.2878363,-0.24331243,-0.0007929654,1.0085938,-0.10712164,-0.709871,-0.24693903,-0.009665955,0.023298282,-0.23650737,-0.03173514,0.81493896,0.2097449,0.59161824,0.45635208,0.639452,-0.016231934,-0.04480835,-0.09063873,0.5943509,-0.5017439,-0.64892036,0.453207,-0.52153206,0.47575584,-0.833157,-0.28990752,0.93066543,-0.07910771,-0.6431067,0.47624916,0.23288712,0.056436796,-0.12193813,0.39656118,-0.38038197,0.33385444,1.0503927,0.25556672,0.23812771,-0.48967636,-0.095938556,0.84434927,-0.15023193,0.801054,-0.2529178,0.19257323,0.9490291,-0.73910296,-0.39112604,-0.13078564,-0.48597738,1.0894153,0.46969584,0.7507683,-0.008269931,0.1796346,0.90992403,-0.71673244,-0.21426663,0.6166196,-0.55262,0.67095673,-0.55435586,-0.5082831,0.5082105,0.3122565,0.9383349,-0.14668088,-0.074316055,0.97037476,-0.42750156,-0.2812121,0.4895807,0.2573479,0.4320272,0.055880547,-0.3027578,0.5598461,0.019147273,-0.7480762,0.028114315,-0.43225124,-0.051369853,0.20698853,-0.10880135,0.37365115,-0.29977837,-0.3607979,-0.20667307,0.10900004,0.2499817,0.8335199,0.112140484,-0.5492961,-0.3177865,-0.11215444,0.4838329,-0.23658067,0.087809496,0.46432307,0.87930673,0.5734142,0.14912644,-0.09127478,1.1338892,0.7854611,0.038409404,-0.24229985,-0.4030096,0.1501443,0.8870549,0.14481883,0.911411,0.35369244,-0.8505944,0.4249479,-0.37216306,0.8979435,1.0051064,-0.76731867,-0.10773735,0.0956887,0.9637586,-0.052148387,-0.5159876,-0.036281686,-0.83952296,0.7870861,-0.6361176,0.5815663,0.57713264,0.288119,0.5224657,0.06465259,0.6961848,-0.45181346,1.0220236,0.85777366,-0.4893749,0.11374811,0.97473955,-0.455705,0.9734106,0.62383837,-0.4572906,0.8434121,0.57610047,0.45429254,-0.13708487,-0.15621002,-0.6986947,0.7080768,0.9050644,-0.16172466,-0.47556952,-0.21262737,0.9950792,0.30072108,-0.66589487,1.0624617,0.25542194,-0.33671954,0.028597312,-0.11345868,0.010450792,0.7289866,-0.42121285,-0.062230326,0.20879686,-0.29762325,-0.2447551,-0.6727433,0.03968937,-0.10767158,-0.8036613,0.7700114,-0.41779736,-0.4453967,-0.8931785,-0.16130807,-0.46061623,0.6244851,-0.11908684,0.7611288,-0.78809255,0.81545514,0.09791943,0.16000444,-0.49231887,0.92902845,-0.6942935,0.24072988,-0.061193433,0.3539903,-0.33618367,0.7404792,0.43627006,-0.41888526,-0.21854432,0.124075964,0.46933952,-0.6325125,0.3456532,0.62054044,0.4425906,1.0520871,-0.4707035,1.0300486,-0.57916814,-0.018884495,-0.6291221,0.096397854,-0.9637177,0.15049699,0.8963184,0.3219228,0.8887946,0.64038366,-0.48219267,0.64976275,0.41955903,-0.899298,0.3960251,-0.021781914,0.5792569,0.2661799,0.17811982,-0.04127861,-0.19885613,-0.61154103,0.9112005,0.48975682,0.14398168,0.94840145,-0.028780337,-0.035287663,-0.9065903,0.5624363,-0.13162021,-0.8199833,0.7124751,-0.43380448,0.64732486,-0.70340574,0.5769172,0.1133856,-0.3930775,0.75715435,0.6101809,0.005994058,1.0424571,1.1440748,-0.2177535,0.4651927,0.8029568,-0.75095046,0.704507,0.21323535,0.5999152,0.8446029,0.73843086,0.18348035,0.15167388,0.23295046,0.8082264,0.86790514,0.030712906,0.6145362,0.92051125,1.1194007,-0.401138,-0.64787555,1.3346575,0.0059043705,0.19692595,0.19010131,1.0973198,-0.15831561,0.26498002,0.761626,-0.8621564,-0.46718964,1.0652285,-0.3390148,1.1039865,0.20664355,0.78440154,-0.19724637,1.4532061,0.97025955,0.16630733,1.1775054,-0.31641668,0.45280972,0.8423649,0.26826742,-0.35181582,0.522141,0.60971105,1.1735963,-0.05640526,1.1986607,-0.11930502,0.94490397,-0.104083434,0.7233617,0.68684804,1.2258756,0.23949571,0.32643497,0.195989,-0.65311205,-0.08126992,1.2248583,0.13874471,-0.6583218,-0.22135773,0.6103464,-0.27226403,0.4750568,-0.42488578,0.06006976,0.6104691,-0.71443784,0.63622177,-0.24769099,0.829667,1.2244364,0.61865,0.01857588,1.2055869,0.14859772,1.1045097,-0.6309826,0.46384093,-0.5101578,-0.3056035,-0.27705595,-0.65698475,0.6559192,1.2126038,-0.683028,1.0296167,0.82815117,-0.7413005,1.1860219,0.34762058,0.98279876,0.88055044,-0.5145744,0.4989173,0.6714681,0.13641769,1.0117881,0.27546716,0.24449334,0.10932301,0.109251164,-0.20069438,0.544753,-0.35397273,0.9541757,0.42560348,1.1621135,0.79911864,0.8438449,-0.30578458,-0.63804454,-0.6292066,-0.3214586,0.25518608,0.29190224,-0.54562825,-0.5562781,1.1779889,-0.036732677,0.12878473,0.45951366,1.0580542,1.2223884,0.79055125,0.114408985,0.87540805,-0.3249968,0.8069764,-0.68962115,1.0247645,-0.25514144,-0.8665083,0.097299196,-0.7274537,1.0413481,-0.1701157,-0.2892499,-0.5152728,-0.18654802,0.8622985,-0.68548626,-0.83631444,0.8261677,0.7835966,0.85746306,0.6639364,-0.6013287,-0.0994161,-0.36130688,0.119836494,0.88280153,0.7807979,-0.33137065,-0.7423097,0.12257971,-0.18851642,0.4989701,0.73046285,0.29252005,0.9041126,0.2312196,0.63875526,0.4538543,0.9563879,0.72373176,1.0084058,-0.15036029,-0.34537712,-0.8290288,0.89969105,0.31045806,0.74164826,-0.9062244,-0.61337334,0.97229046,0.51032346,-0.49960688,0.8777384],[0.45884967,-0.14709248,0.26648802,-0.32427216,0.8855766,0.37320444,-0.7371895,-0.594917,0.92090154,0.2922116,0.8389451,-0.64427775,0.6296253,-0.6309895,-0.9844459,0.37611806,0.3280493,0.12480829,0.016865354,-0.41662425,-0.61097074,0.307391,0.9244361,0.19396193,-0.63485295,-0.40054062,-0.7258928,-0.3723731,0.02187578,0.41332072,0.54929316,-0.065925084,-0.6022501,0.50379544,0.64907914,0.9901011,0.017099446,-0.5714349,-0.23859325,-0.016413175,-0.5192669,0.2169333,-1.0056326,0.39848524,-0.6962857,0.9604951,0.31886524,-0.5324845,0.31990403,-0.43450403,-0.17138793,0.65057164,0.28053296,0.30929855,0.26680693,0.23341116,-0.80639535,-0.6165814,0.93562335,0.5026965,0.13190424,-0.09167149,0.30871356,0.74328256,0.1651738,0.43764484,-0.8129732,1.1030024,0.6318999,-0.36941984,1.263896,1.1125631,1.1855344,0.57314223,-0.04357377,0.9846441,0.118184544,-0.651268,0.5640464,0.5739641,0.7146953,0.39919218,-0.5374271,0.0012293385,0.19600281,-0.2700413,0.50836104,0.47251323,-0.42558187,1.1137056,-0.37410024,0.2059158,-0.43043354,-0.26233438,-0.3598299,0.6740894,0.66482586,0.051550984,1.2639086,-0.05774028,-0.3618813,0.7765965,-0.43531305,1.3676301,0.7809873,0.9303854,-0.13005647,1.5679265,-0.5657629,0.60512847,-0.37108955,-0.20400108,0.8714528,-0.31170422,0.9479855,-0.027083032,-0.015324256,-0.16870467,1.3636935,0.06744881,1.3618217,1.2729193,-0.4244254,-0.10120065,1.3610533,-0.46494335,0.09002895,0.63878417,0.47908688,1.3134366,0.68677014,0.7750693,1.2899005,0.6016717,0.72614044,0.47164795,1.1201528,-0.2988344,0.8251872,0.9451656,0.48990175,0.32437217,1.347884,-0.7351304,0.047387447,0.98527414,-0.41091922,-0.3246386,0.39674696,-0.47813037,1.112106,-0.046909615,-0.13220072,0.27716008,-0.28161263,0.9017271,-0.37185863,-0.7021231,0.4858366,0.26777348,0.42701578,-0.008859754,-0.2959473,0.16694112,-0.622518,0.37478057,-0.73851824,-0.005452812,0.31896573,0.06705541,-0.8321578,0.8944354,0.23617299,0.42994225,0.6527652,0.18210047,-0.8589446,-0.31299868,0.26240003,0.26434368,-0.85833055,0.661498,0.73540723,1.0053213,-0.35208184,-0.18214454,0.03464851,-0.36479095,-0.36611032,0.809459,-0.41606665,0.026527148,0.17726798,0.73238724,0.61863434,-0.6390673,-0.5037037,-0.92528933,-0.8529936,-0.9719259,0.4806,0.51600945,0.7528088,0.80620575,-0.43648866,0.27966645,-0.48256132,0.7703064,0.24105854,0.22404572,0.35384944,-0.15031318,0.26054457,-0.65413976,0.84590226,-0.6136051,0.27912024,-0.6294159,0.14680204,-0.040636178,1.0030226,0.19447082,-0.5895607,-0.49146807,0.90122557,0.0768364,0.37595928,0.5296448,0.75523967,0.8770562,0.19103087,-0.81927866,0.06480335,0.20213573,-0.94189155,-0.086314954,-0.62142646,0.67196804,0.18625058,-0.48978746,0.20691118,0.27272275,-0.15210629,0.23366131,0.6638058,0.13494685,0.29986945,-0.18893884,0.0603645,0.8658826,-0.48567855,0.87422,-0.70048,-0.811667,0.8657274,-0.059702534,0.931125,0.0059216614,-0.45986307,-0.113378376,-0.4958556,-0.20667097,0.5577155,0.16123383,-0.37321678,-0.30194196,1.0703366,1.141338,-0.8266396,0.6729898,0.8442535,-0.5364871,0.17185983,-0.5099971,0.8348458,0.6956322,0.5599608,-0.93461764,0.4585366,0.22465199,0.68075335,0.08229476,0.33697626,0.5629801,-0.9275208,0.7043864,-0.15748459,-0.74495393,-0.54040384,1.006025,-0.12510476,-0.23439828,-0.7634599,0.5924543,-0.8288244,0.4333948,0.34232914,-0.6101335,-0.553985,-0.72316384,0.97756016,0.706892,-0.6778991,0.39659408,-0.13665718,0.5424113,-0.7684032,0.22134256,-0.4454691,0.71306545,0.23655447,-0.6774696,-0.47894025,0.69218796,0.14472428,1.0033853,0.36551192,-0.18978007,0.72419494,-0.025290625,0.5711607,0.38825962,-0.3284732,-0.47304714,0.71606666,-0.033488896,0.05383377,0.007966723,0.16553079,0.9852114,1.0393113,0.6747996,0.09253899,0.047470327,-0.7402143,0.3435729,-0.025597714,0.06035434,1.1627442,0.5936588,0.12442555,0.29697758,0.29002285,0.155012,0.86726785,-0.49002218,-0.7441396,0.07124469,-0.10991763,-0.49022081,-0.77421427,0.72271156,0.6031939,0.2816837,-0.63400155,0.21284494,0.7481408,0.30996066,0.025103897,0.2917315,1.0785389,0.36366618,0.8158436,-0.30299938,0.5891186,1.1775007,0.173866,0.15194349,-0.741351,0.9231045,-0.52232635,1.0660372,-0.6554006,0.6791548,1.0319976,0.4824345,0.13279031,-0.6105238,-0.6633528,-0.66795766,-0.7601933,0.5022641,-0.5224099,-0.17473409,0.34333968,1.1156324,0.6359264,0.1782143,-0.2560982,-0.22101858,1.103515,-0.70435345,0.49973452,-0.7026079,0.2864483,0.008701904,0.8963918,-0.5742892,-0.16169988,0.018560003,-0.36484462,0.679794,0.09224124,-0.6207291,0.83388555,-0.13142422,-0.28460938,-0.35576546,0.5221356,0.17608884,1.0122759,-0.0150085995,1.0455692,-0.46426785,0.94718975,-0.7182609,-0.06192392,-0.52724063,-0.110121414,0.1928525,-0.49845728,-0.49331054,0.81481683,0.8864836,0.057190627,-0.62293845,0.23750648,-0.5783715,-0.061926972,0.83629316,-0.0082041975,0.52839744,0.22830051,0.43167078,-1.0573577,-0.8848283,-0.99437344,0.8343355,0.8637665,0.23490065,0.20418805,0.8093487,-0.5246196,-0.92090255,-0.46892926,0.4292703,0.6943041,0.915352,-0.17852454,0.2625342,-0.894117,0.5925313,-0.26005593,-0.43983805,-0.99576867,-0.28000262,0.7971972,0.05146877,0.5021044,-0.7655395,0.46943402,-0.73712605,0.09931679,0.9719471,-0.09342641,0.3972116,0.87717694,-0.4196451,0.28611657,0.6671509,0.1695743,-0.015393588,-0.35546038,-0.9498704,-0.6696301,-0.74418855,-0.7350515,0.38372415,0.84144264,0.2749865,-0.18460152,0.46305147,0.13551688,0.16978563,-0.69157165,-0.8764678,0.3702763,-0.3975012,-0.7761862,-0.9221254,0.1280584,0.5846379,-0.69692004,-0.16568966,-0.83180106,0.9199627,1.118207,-0.9810774,0.21815103,0.69904613,0.1640646,-0.86318487,-0.42343315,0.21819413,0.38885242,-0.7427521,0.7632708,0.3808815,0.88107306,-0.8825415,-0.042199668,0.6615522,-0.2863029,-0.44355473,0.38634712,-0.45990953,-0.46334046,0.6021779,0.4316039,0.7704999,-0.43248597,0.633494,-0.76332545,-0.56351304,0.788972,0.68199056,0.6402925,0.78100055,0.2517774,-0.44722265,-1.0452379,0.29447404,0.9001407,-0.1375708,0.07173567,-0.9293504,-0.6788513,-0.3165852,-0.35723528,-0.7589104,0.39317107,-0.31719074,0.47488573,-0.19841342,0.86043096,0.16776682,-0.34197837,-0.42150453,-0.8365342,0.25157717,-0.055115156,0.724525,0.8972805,-0.11515492,0.10215922,0.56319875,0.4930216,-0.6657304,0.1773738,0.65910655,-0.48025307,0.9175633,0.18451451,-0.6029408,0.764457,-0.13163657,0.41643548,0.30121604,0.18446141,-0.21945828,0.12744106,0.91277635,0.5582862,-0.03504659,-0.45323643,-0.63181394,0.27104163,0.3396747,0.018945387,-0.14747538,-0.022660315,-0.55462945,0.57565206,0.858084,0.1080728,-0.2823727,-0.6375781,0.7634029,0.9310734,0.4001369,0.61050564,0.50070214,0.8716937,0.58157825,-0.64740235,-0.18252403,-0.4384212,-0.72752345,0.007939914,0.43881795,0.014425894,0.5677711,0.5623404,-0.6187091,-0.1956455,-0.61382335,-0.8761815,0.23265271,0.37723696,-0.27409658,-0.62332565,-0.15838848,-0.23199426,-0.13669768,-0.05337056,-0.102017224,-0.7055995,0.91781,-0.43774536,-0.6461572,0.16794486,0.76089317,-0.509173,0.8541537,-1.0121739,-0.37922108,0.12070939,0.3722764,0.06908528,-0.53363204,0.060685687,0.67820287,0.49808928,-0.60727984,0.3511329,0.06814822,0.4486227,-0.36853528,0.32521537,0.3716118,0.16417886,0.5145886,-0.106718525,-0.7844136,0.4196621,0.024668118,0.06404783,-0.5256621,0.62603205,-0.6528503,0.6742055,-0.56367844,-0.15636373,-0.4938741,-0.0931893,-0.3610456,0.6471327,0.57276535,-0.93608505,-0.7908922,0.023940891,-0.3131821,-0.0763703,-0.96440405,0.5107242,-0.55041254,0.49684718,-0.84773296,-0.27093065,0.8203053,-0.121673286,-0.8332353,0.81704646,-0.11328213,0.091645315,-0.51234233,0.8896036,-0.067955695,-0.8565565,0.110269845,0.4378628,0.71398526,-0.6456301,0.37280172,-0.5563156,0.1220744,0.1509772,0.06117286,0.878429,-0.93963146,-0.7954327,0.0036521056,-0.843704,0.5687799,-0.7067699,-0.96961343,0.35006306,-0.019529307,-0.60861504,0.060424246,-0.77709484,-0.3792194,-0.28472966,0.8819081,-0.46413115,-0.41239923,0.30543175,0.77237785,0.5374781,-0.43507373,-0.93335944,-0.5073248,0.4088815,-0.0325144,0.72203386,0.61550146,0.54132706,0.93540394,-0.4912071,0.12644129,0.3312233,-0.44353342,-0.8879595,-0.704763,-0.86219853,0.06837536,0.6497911,-0.8817126,-0.92620295,-0.012551611,-0.15622847,-0.889069,-0.24658386,0.09196697,0.5732641,0.003588587,0.5732571,0.7942795,0.29836458,0.30502513,0.8287483,-0.11994206,-0.5071922,0.008579609,-0.3621552,0.67466015,0.24958873,0.8754626,-0.3462069,-0.7884314,0.16704635,0.7998246,-0.12743042,-0.39313713,0.2980479,0.4489034,-0.41855165,-0.27931178,0.24911204,-0.7245112,-0.32538652,0.6524599,-0.108416505,-0.7776752,-0.61901236,-0.47518918,-0.10526052,0.07822555,0.96380615,0.5856237,0.46018672,0.7252511,-0.0035823253,-0.8165904,0.20803724,0.054338783,-0.6379429,0.59528077,-1.0731142,-0.7890975,-0.14289069,0.5937543,0.47061765,0.037461653,-0.8761221,0.28367192,0.90598774,-0.43476808,0.433082,0.22374427,-0.17247039,-0.71811277,0.504995,-0.0711342,0.5509807,0.6429858,-0.48318443,0.6108869,-0.59024274,0.60206527,-0.454024,-0.7352575,-0.7354085,0.79480624,-0.20759825,-0.6957581,-0.36554712,0.31875855,0.07800998,0.79148984,0.84257346,0.6998519,0.5842267,0.104868084,-0.9144168,0.15038925,-0.9170079,0.008315049,-0.29474866,-0.5718051,-0.09108587,-0.5220634,-0.32332063,0.115139015,-0.7628204,-0.6170071,-0.070829034,0.75943226,0.52107525,-0.7057162,0.9353238,0.9460521,-0.9098022,0.6330315,-0.246121,-0.10767601,0.2627003,0.8968339,1.0112227,-0.38614622,-0.3465297,0.12145271,-0.38131368,-0.40875477,-0.88644016,0.8719501,0.6549032,-0.2837024,-0.8347624,-0.08464818,0.630464,-0.23577331,-0.66859853,0.031692695,-0.68916124,-0.23269366,0.72452414,0.8256523,-0.7677798,-0.010710227,0.052136205,0.538377,-0.451692,-0.25821683,-1.10145,-0.5765381,-0.85833,-0.12474465,0.18412764,0.28213057,0.4085441,-0.1549197,0.04745481,0.124955125,-0.18576467,-0.35308352,-0.48058832,0.27803528,0.14695138,-0.47603005,0.18131928,0.61449856,-0.0062389625,-0.73379505,0.100295246,-1.0915474,-0.4519786,0.28765643,-0.8777094,0.7174462,0.107116885,-1.1748843,-0.5237746,0.50377685,-0.66107005,0.65301627,-0.15274733,0.64945966,-0.16308466,-0.42989162,-0.05931802,-0.41828743,0.41972268,0.62163854,0.44205907,-0.7548156,0.66143894,-1.0053383,-0.01229074,-0.287262,-0.13356413,0.73489743,0.03556591,-0.08760815,-0.22696044,0.8077172,-0.60123146,-0.25134653,-0.48091397,-0.58419406,-0.8300207,0.29919493,-0.7640256,-0.66834044,0.087473385,-0.2133109,0.38699806,0.16768922,-0.020313816,0.62872803,0.5648058,-0.29252025,0.060952816,0.21131866,0.700275,0.8119215,0.60389507,-0.66528314,0.14176656,0.87939173,0.66589266,0.6139532,-0.23759921,0.61757374,-0.42986283,-0.87943643,0.1125065,-0.2484901,-0.69716364,0.27236897,0.2241685,0.53663796,0.056574967,-0.39171952,-0.97477025,-0.40061003,-0.64363563,0.052528236,0.3140083,0.837234,-0.6053096,-0.16882482,0.6001883,-0.84697324,-0.5806815,-0.55116516,-0.406613,0.006061453,0.6842031,-1.0175873,0.5295344,-0.22335291,-0.45325568,-0.90580994,0.67151284,0.8207918,0.5019406,0.78054243,-0.8611425,-0.12545453,-0.101738915,0.07723702,0.77761453,-0.8691021,0.72278064,0.6011624,-0.46214527,-0.46406075,0.20822673,-0.017117545,-0.7647892,0.2071713,-0.20604023,0.7054534,-0.78413045,-0.99129194,-0.0014299436,0.4611405,-0.65472984,-0.53411686,0.47250536,0.39613545,0.35997027,0.6706558,-0.7823311,0.10097415,-0.8686766,-0.16133042,-0.56660074,0.39460948,-0.38863552,-0.69218445,0.7238101,0.78486115,-0.17629921,-0.7040094,0.25076097,0.8528176,-0.27511835,0.8413539,1.0693843,-0.2737762,-0.55966014,0.14522389,0.41484454,-0.45654118,0.14701103,-0.18740648,-0.0810017,0.8165401,-0.565783,-0.34860012,-0.8990868,0.5033993,0.9773616,-0.44479254,0.2595009,-0.049300198,-0.66232085,0.5476281,-0.67650676,-0.5263907,0.21080984,0.37448007,0.57659394,-0.71456367,0.81001276,-0.78950906,-0.7373267,0.96472746,0.81572145,0.87874424,0.024447577,-0.7093276,0.23895814,-0.18501888,-0.13458243,0.12288267,0.29203674,-0.35351297,-0.59234697,-0.6623576,0.23142397,-0.8964125,-0.29979366,1.0211195,-0.3367444,0.33914953,-0.47608116,-0.6650338,-0.84581614,-0.35433942,-1.0343673,-0.6263106,0.5005785,0.9083844,-0.086170256,0.47941315,-0.24994868,0.90656793,-0.25355142,0.19773287,-0.57696587,0.85426855,-0.5498045,0.4266229,-0.86487854,-0.18724324,0.30451268,0.00065532466,-0.21323697,-0.4637511,-1.0442287,0.7720963,-0.14622869,-0.007550722,-0.6694512,0.04241526,-0.3641047,0.76578265,0.53983915,-0.28257695,0.039729394,-0.78536624,-0.32921147,-0.4435366,-1.0403199,0.082785144,0.3966225,-0.5238813,0.43174374,0.5905613,-0.011874931,-0.98455656,-0.133464,-0.13534886,-0.45474726,-0.5592231,-0.44952917,0.30689245,-0.18699455,0.43350503,-0.9684402,-0.8673896,0.404419,-0.05663077,-0.007875163,-0.32173786,0.06596998,0.6285404,0.6872309,0.12843966,0.254868,0.35070118,-0.115301915,0.8114346,-0.56593937,-0.12095077,-0.40255666,0.4652611,-0.2476646,1.0060345,0.0016201301,-0.6633556,0.8110173,-0.48338348,-0.24222937,0.2941337,0.4505581,-0.80137485,-0.8968319,-0.66475135,0.120059706,-0.74788195,-0.008859092,-0.056688644,0.10442008,-0.6563571,-0.008487328,-0.09726516,0.6165502,0.16842364,-0.34151793,0.19935031,0.9456686,0.12372514,0.847248,0.16091189,-0.60868937,-0.13363667,0.21197729,0.63912725,0.058697034,0.30515546,0.29124352,-0.9833136,-0.94018054,-0.9824657,0.24814501,0.46501756,0.8369133,0.1421064,-0.95069987,0.4696596,-0.13417673,-0.14989763,-0.3108236,-0.12353557,-0.5802628,0.07438524,-0.39617825,0.091807686,-0.34860048,0.5479342,0.36848408,0.41630623,-0.4439172,0.24785763,0.34583598,0.108972274,0.5172487,-1.0767696,-0.3909503,0.3593774,-0.7394039,-0.9362011,-0.2098806,0.04182666,0.22055833,-0.1177435,0.3809316,-0.56677556,-0.5393288,0.69378746,-0.48792112,-0.8921829,-0.8540247,0.4147775,-0.2399901,-0.95298105,-0.89867264,-0.01244567,-0.69712365,-0.3205027,-0.17498296,-0.49862438,0.43920213,0.77743536,-0.225851,0.6681827,-0.1946056,-0.30506393,0.42159137,-0.55502474,-0.37326932,0.792799,0.044841215,-0.43844065,-0.6025987,0.23487267,0.70343655,0.70297575,0.8136672,0.36560008,0.045972947,-0.14006245,-0.7422276,-0.2614863,-0.46877187,-0.7308971,-0.06260561,-0.6099984,-0.36064062,0.026003215,-0.4658706,-0.0100274775,-0.090173915,0.88247323,0.41497892,-0.9587957,-0.834007,-0.34124145,-0.8488171,0.32999215,0.029204164,-0.59177196,0.54285175,-0.8012248,-0.40385956,-1.1012201,-0.76264703,0.30581182,0.79507303,0.04652726,-0.05919179,0.5773462,0.662865,-0.53962076,0.7178805,0.28642258,1.0551805,-0.66427886,-0.4757138,-0.25813934,-0.29455778,0.0030140723,0.12566616,0.1828157,0.22186859,-0.5447955,-0.31074777,0.5093792,-0.58264786,-0.55799854,0.7923503,0.5520618,0.19360025,0.51730937,-0.15354654,0.74106836,0.16002676,-0.14555468,0.5397026,0.5808675,0.5254886,0.9016441,0.19337253,0.9307599,-0.7882682,0.8270574,-0.82265913,0.7480938,0.24719675,0.10553525,0.9054069,0.3362535,-0.6109898,-0.5032992,-0.61916256,-0.19389568,-0.25846592,-0.22955474,0.5027817,0.52698785,0.2828187,-0.10083612,0.62503165,-0.13732997,-1.0735754,0.61438596,-0.4391172,-0.7420798,-0.8301276,-0.64603996,0.79427135,-0.6108325,0.44876364,0.19145049,0.38090226,-0.4278449,0.62520623,-0.25160438,-1.1269104,-0.08324117,-0.87599653,-0.7518774,-0.20706737,-1.010302,0.75647813,-0.9689857,0.46571767,0.017024592,0.10443055,0.33703014,0.47395232,-0.2651045,-0.67357117,0.83088595,0.03231498,-0.5125626,0.43214715,-0.57178956,0.29611796,0.26247033,0.04315513,-0.3538433,0.33823168,0.6045238,0.07599353,0.48285297,-0.77804667,-0.3449619,0.43233472,0.97226495,-0.89084905,-0.13550954,-0.7497262,0.28507355,0.92768383,-0.0078103133,0.7187809,-0.10807469,0.88330686,0.73332924,-0.759662,-0.25593033,-0.67519456,-0.9182692,0.86056185,-0.36530814,-0.5315474,0.20020323,0.6991265,0.21074419,1.0612751,0.37983435,-0.1952928,0.5087889,-0.7153438,-0.20292921,-0.5539162,0.2905804,0.29844707,-0.7549814,-0.7269646,0.087370075,-0.98622674,-0.37199745,-0.4888514,-0.80320215,0.092438444,-0.03185295,-0.24417004,-0.6703788,0.4093966,-0.66757137,-0.23398252,-1.0631094,0.69601345,0.42990395,-0.8139698,-0.22078344,0.8518948,0.23611379,0.33603814,-0.6075607,0.27149072,-0.9465039,0.68929553,-0.26344055,0.57195485,-1.0805757,0.17027424,-0.85042286,-0.36079675,0.6501816,0.90142524,-0.5920578,0.12517388,-0.76216507,-0.57587665,-0.889711,0.07873774,0.07465038,0.5688552,-0.71504503,0.8295797,-0.21535476,0.91977835,0.39665744,0.29067475,-0.84304637,-0.22696663,-0.53410566,0.8516549,-0.5606052,-1.0256169,-0.6471244,-0.52504414,-0.40945977,0.38517377,-0.8952991,-0.41359946,-0.0160601,0.06592713,0.13983755,-0.56454974,-0.9034449,0.6963604,-0.9884373,-0.56566334,-0.6949451,-0.16441378,0.34020457,-0.9831346,-1.0594664,0.092081346,0.8858645,0.2446037,0.061296634,-0.42548013,0.42757225,-0.94706357,0.7828094,-0.19073288,0.82722884,0.004457307,0.28782782,0.13358077,0.5282284,0.8485201,0.80497617,-0.08056897,0.44834426,-0.9738562,-1.0769347,-0.73424,0.3451168,-0.75665313,0.38653752,-0.35569492,-0.7714037,-0.288859,0.5937949,-0.14640002,0.7925367,0.87098217,0.22734825,1.0758092,0.28266957,-0.8995975,0.2861612,-0.25561345,-0.89486974,-0.23826273,-0.8767758,0.15241587,0.41717088,0.9562264,0.4371288,-0.8154747,0.28194022,-0.5734823,0.8096583,-0.080399126,0.19950812,-0.55039376,-0.07993199,-0.025825202,0.30426294,0.88503325,0.5345562,-0.18955047,-0.21741922,0.22186047,1.1478232,-0.3599345,0.9781441,0.66962844,0.437812,0.5966929,0.04271769,0.13803808,1.0670127,0.29640114,0.39972264,0.07088709,-0.27431336,-0.720361,0.006262848,-0.11348215,0.49213934,0.89461803,-0.8358392,-0.6765664,-0.23764277,-0.36118793,0.2489661,0.2230105,0.7183524,0.26998225,0.21445344,-0.64162326,-0.94423985,0.5364483,-0.56034106,0.13010584,-0.3054852,0.49647403,-0.58921134,-0.0731365,-0.9210796,-0.07128724,0.73279285,-0.050449625,0.43543097,0.2214989,-0.07702997,-0.8689483,-0.23754393,0.80295414,0.2578729,-0.33567348,0.7161277,0.7059903,0.9887103,-0.15374021,-0.5057358,-0.86180645,-0.5712386,-0.32045606,-0.3388088,-0.6623661,0.17497142,0.01879691,0.32133168,-0.57171685,-0.10350723,-0.39998013,0.36696437,0.07067472,-0.12319295,0.26036257,0.050170545,-0.96307707,0.69817126,0.9347662,-0.7807962,-0.1617293,0.9311213,-0.54617864,0.28857183,0.77208346,-0.35108748,0.119356364,-0.78565514,0.68817675,0.9280956,0.93533057,-0.95872647,0.31696594,0.87899595,0.29505238,0.0025538206,-0.62926185,-0.35158035,-0.20028451,0.59838575,-0.8098279,-0.613663,0.39770052,-0.92462313,0.039661102,-0.3132935,-0.40765733,-0.37059617,0.7303513,-0.41086137,-0.07453855,0.6537214,0.24443798,0.70917416,0.31142733,0.5812551,0.8342015,0.78665614,-0.035921633,-1.118754,0.41933793,0.5284532,-0.17981783,-1.0617863,0.6339308,-0.88832,-0.7283986,-0.032066282,-0.4153622,-0.9738621,-0.3123341,0.3890125,0.889091,0.6420243,-0.6869133,-0.6109888,-0.04312397,0.45134223,-0.8560222,0.607767,0.22220396,-0.6841969,-0.9453497,-0.15268542,0.22537267,-0.7024094,0.0034374625,0.30970895,-0.7196231,0.7242424,-0.06174156,0.1781126,0.20081559,-0.2084089,-0.37583292,0.005516463,-0.105756454,0.5754313,0.37599114,-0.87069803,-0.47461295,-0.022961143,0.16894624,-1.0112894,0.540449,-0.3536859,0.3846532,-0.45573863,-0.43028778,0.36787012,-0.17733596,0.5182359,-0.08206678,-0.31739047,-0.0850133,-0.7544457,-0.30542785,0.867857,0.68993306,-0.27606568,0.09911986,0.59076184,0.08896505,0.51200396,-0.18281275,-0.36129987,0.25093147,-0.27324286,-0.7322861,0.50181955,-0.81937945,0.5620829,0.74036115,-0.07538132,0.6140186,-0.2806767,0.022854907,-0.14676218,-0.1919612,-0.49840218,0.8131255,0.45000377,0.77218723,-0.6151759,0.19613457,-0.40774456,0.9152385,-0.9281801,-0.3817638,-0.11770609,-0.3349785,0.075182974,0.5139865,0.6707088,0.3433929,-0.43861187,0.063045844,-0.5487233,0.86178285,0.8688554,0.4228219,-0.370663,-0.33444354,-0.8117546,0.2551667,-0.83519506,-0.9080483,-0.9141039,-0.041793447,-0.75026447,-0.9646084,0.78260964,-0.8472852,-0.62050647,0.7021831,0.83922434,-0.3909388,0.025565302,-0.49330777,1.0663056,0.79459554,0.34598905,-0.22011706,1.0898944,-0.43519387,-0.12443207,-0.7384829,-0.3273701,0.3612072,-0.24346523,-0.16869421,-0.7861165,-0.75893664,0.19858162,-0.53046656,0.44594383,0.12242671,-0.026713371,0.8161234,0.7629158,0.58900243,0.6077182,-0.61339253,0.80216604,0.917208,-0.6281688,-0.13860333,-0.2243585,0.6291556,0.18378553,-0.6590267,0.41236418,0.6084342,0.6113377,-1.0287724,-0.63076085,0.8180523,0.10030583,0.7724239,0.8667781,-0.38129893,-0.88948894,-0.44773045,-0.3274286,-0.34494585,-0.20179889,-0.105571985,0.28877074,-0.061416112,-0.7962403,0.2942509,-0.08809233,-0.9432347,-0.9323086,-0.25591838,-0.5925948,-0.56246495,0.46233168,-0.3216754,-0.011596877,-0.2767636,0.21831192,0.08422452,0.23756912,-0.9926367,0.08216235,0.40636414,0.315627,-0.41723058,0.77778906,-0.06672362,0.9183093,0.28998244,-0.13938515,-0.72605234,-0.6650475,-0.4223979,-0.5407711,-0.46467996,-0.7541174,0.74983835,0.13110918,0.7442275,0.14483885,-0.6477065,0.6439501,0.22822635,0.55958164,-0.6514978,-0.38754708,-0.41680545,-0.20989029,-0.030132774,-0.2185053,-0.482905,0.18295431,0.69802594,0.84355545,0.40170836,0.47649202,0.45641652,-0.36025348,-0.52261287,0.2621943,-0.9209337,-0.07126774,-0.64752305,0.28177387,1.0329207,-0.3725234,0.99405384,0.7400277,-0.26808012,-0.4846168,0.7572195,-0.3313249,-0.32955214,-0.18113169,0.4020255,0.68503404,-0.061075464,-0.5609728,-0.8056575,0.22585659,-0.28603452,0.79325783,0.8986839,-0.43876556,-0.7978654,0.76972115,-0.86371946,-0.7673237,0.059066743,-0.83970195,-0.36264238,-0.5551599,0.7881925,0.81431574,-0.7928414,0.39298478,-0.17024559,0.076060966,-0.5191684,0.7698137,-0.16830076,0.21225087,0.3175608,0.18690994,0.30086294,0.6267537,-0.8868898,0.43000537,-0.99966496,-1.0356923,0.8277169,-0.3201141,-0.54661953,0.96886253,0.8226385,0.6092626,-0.6412118,-0.93715775,0.13426395,0.06455224,0.41871,-0.8804987,0.8458475,-0.893327,-0.82837635,0.73300076,-0.8420025,0.34333268,0.25496814,-0.70245814,0.6622497,0.5555777,0.67344594,0.68043387,0.44129002,0.26346856,0.91130024,0.47351366,0.6841193,0.13215524,-0.47253484,0.7256379,0.0069693653,0.14126217,0.46217752,-0.07471466,0.5730343,-0.9703994,-0.35381818,-0.28652474,-1.0091288,0.70428604,-0.48947152,0.65766543,-0.3161015,0.25329065,0.22759649,1.0082649,0.19055216,-0.60135794,-0.14846724,-0.1946601,0.22893205,0.6997012,0.70524484,-0.28861642,0.3452219,-0.82543737,-0.041555192,0.892053,-0.21525645,0.3590887,0.8394137,0.9004879,0.08627942,0.02682532,-0.16782638,0.042264473,-0.6374726,0.75415415,1.1572406,1.1210414,0.785438,0.6203782,0.6218895,-0.1762378,0.60824436,0.7545895,0.5881282,-0.14162791,0.2538805,0.1933449,0.2836899,0.28372085,0.31246346,-0.072289445,-0.20612966,-0.2047252,-0.70870644,0.4464495,0.035208758,-0.90384036,1.0166632,-0.59019214,0.6957987,0.6767915,-1.0635064,-0.06514766,0.065221176,0.8976877,-0.2857943,0.7213054,0.016796395,-0.62923986,0.46250585,0.6093155,-0.5948573,-0.4117924,0.10541779,0.45717952,0.142961,-0.40454867,0.31250536,0.95865154,0.26020822,-0.059649765,-0.87288946,-0.5927322,-0.6424272,0.6205127,-0.5059142,-0.86316466,0.4322964,-0.24299659,0.40698367,-0.49439391,0.07835093,0.31091848,0.24000725,0.33099943,0.91942686,-0.20111756,0.443049,0.32696936,-0.81592834,0.6444612,0.69503486,-0.45581615,1.0201834,0.7155723,0.35953107,-0.6888863,-1.0106965,-0.3462632,0.13576834,0.95677304,-0.55427593,-0.23202433,0.46776682,0.4764484,-0.39167905,-0.47208607,-0.64500433,-0.33175355,0.845737,0.7554762,-0.81477654,-0.23156418,0.78734326,0.05404648,0.7950964,0.7305701,-0.26825428,-0.13029495,0.42552844,-0.6671372,-0.5265975,0.031654626,0.37827495,0.33573094,-0.73526764,0.4348463,-0.6322815,-0.27069968,0.16618049,-0.36336622,1.0102,0.3718006,0.38588125,-0.7757229,-0.48490933,0.79798245,0.7726464,0.3415109,0.78383833,0.06547212,-0.043925304,0.98044056,0.78869283,-0.12936425,0.7009299,0.53462434,0.018215219,0.66763544,-0.12781794,0.4396438,-0.30783448,0.3226879,-0.5646126,0.20991553,-0.77218866,0.25478837,-0.19621189,-0.5848682,0.10768188,0.49349952,-0.6205834,-1.0169255,0.68170804,0.97805583,0.022554714,-0.5094486,0.56269026,0.05403829,-0.4032521,-0.890865,0.03328122,0.059455868,-0.92927265,-0.09272643,0.35820496,0.29663646,-0.6767558,0.17069434,-0.75720304,0.10259292,0.38588428,0.9450884,-0.09844042,0.13774699,-0.65938324,-0.25963253,0.5530736,0.9111623,-0.79931915,-0.3333622,-0.69455934,-0.62946844,0.23687556,0.66149646,-0.56730145,-0.4445759,-0.6133116,-0.2758267,0.82262987,0.5889234,0.22383872,0.9104613,0.1535363,-0.19954719,-0.12274697,-0.43061656,-0.9340574,-0.30372646,-0.6042013,-0.056134608,0.37715656,0.8106702,0.37068725,-0.2989086,0.6716075,0.3059117,-0.91224855,0.83709127,-0.4002341,0.36072657,0.2564973,0.68717325,-0.35923845,0.95240283,-0.73428214,-0.521315,-0.53726465,0.41667345,-0.38240752,0.55934566,-0.58272636,-0.5274434,-0.5086453,0.23871332,0.28691033,0.72919405,0.4072826,-0.32241276,-0.66488147,-0.22399,-0.6006638,-0.5202323,0.30154365,0.28159633,-0.020934679,0.84072834,0.22488345,0.6995828,-0.75368667,-0.012243137,0.43168566,-0.08816227,-0.5134579,0.38786513,-0.53594613,-0.26112172,-0.54640543,-0.09752785,-0.327846,0.73929393,0.19232702,-0.6942106,-0.8272538,-0.92509985,0.5560157,0.8982275,0.8644384,0.6236852,-0.07124759,1.0608027,0.23283513,0.35065728,-0.57679737,-0.2311059,-0.5170094,-0.7754608,0.88903654,0.272873,0.84981656,0.11606978,0.54244435,0.57117194,0.8144392,0.9317209,0.9427984,-0.24037538,-0.72907585,-0.53137696,-0.45506096,0.606787,0.27286115,-0.11809156,0.8627842,-0.8871605,0.39475432,0.15432782,0.6872896,0.62054294,-0.00032515574,0.86235785,0.888516,0.12146974,-0.5525546,-0.47492576,0.37866163,0.26796362,0.44585425,-0.799833,0.07753753,0.7773222,0.6267231,0.32433942,0.96488726,1.0015769,0.99170405,-0.49513656,1.0394838,0.81743354,0.25062475,-0.7952653,0.8927504,0.59226555,0.6218339,-0.34666875,0.49316528,-0.23542473,-0.3020502,0.59999925,-0.9297001,-0.26518825,0.21008171,-0.03625828,-0.07440292,0.56978494,-0.6154803,0.73089284,-0.3136921,-0.2364404,-0.25757024,0.37400857,-0.3344692,-0.75452864,0.63669175,0.34088135,-0.13823158,0.8671649,-0.10848333,0.7643952,1.1244141,-0.03189824,0.8077093,-0.015502658,-0.23960285,-0.15785751,-0.5203204,-0.35650605,-0.103696994,0.20499597,0.40516955,-0.6254123,-0.2733065,-0.70308775,1.0103287,0.28081486,0.68247116,0.41233537,0.84247005,0.16681118,-0.1453622,0.045565724,-0.15024607,-0.89320827,0.5412425,-0.16930538,0.9482976,-0.5146713,0.13976647,-0.34965757,-0.68857026,-0.9695472,-0.61773163,-0.02592044,0.3707435,0.49203613,-0.7084431,0.71139884,-0.015613326,0.5660866,-0.25163656,0.9657054,-0.33589712,-0.832989,0.3421573,-0.79553616,-0.12552321,-0.9243344,0.9170733,0.8117122,-0.6690311,0.5692711,0.027929429,0.30858764,-0.26638046,0.48804694,-0.6236936,-0.0981323,-0.7698195,0.618261,-0.8604023,-0.53467816,0.2231961,0.78116125,0.5183153,0.7417111,0.6852936,-0.31188098,0.37508747,0.7055025,-0.22005112,-0.70371455,0.25564125,-0.097022876,0.25271052,-0.46394977,-0.056873452,0.78040475,-0.045553118,-0.5303814,0.96263003,-0.1875061,-0.4522858,-0.8400655,-0.1771398,-0.72657895,-0.8076032,0.119445644,0.7636468,0.459527,-0.02719358,0.15469927,-0.00958181,0.3079573,-0.031761516,-0.6466959,-0.8390353,0.16671166,0.49286446,0.50503343,0.33703187,-0.5683233,0.3461022,0.7342397,-0.5029354,-0.21627071,0.39476913,-0.4854566,-0.09205117,0.83534926,0.5617146,0.12610748,-0.42701647,0.728405,0.71095335,-0.8486532,0.65248543,0.69320446,-0.7702435,-0.8417786,0.7430535,0.037561446,0.5306997,-0.3546138,0.33614576,0.72958034,0.5818804,0.63734406,0.90649635,0.23672512,0.4067329,0.072148755,0.8478398,0.30322772,-0.47542202,-0.42540523,0.20397605,-0.63406575,-0.26598248,-0.45796296,0.16016977,0.8431659,-0.1129529,0.12402391,0.043453306,-0.80784774,0.70532507,0.6913139,0.97360903,0.048500538,0.22044414,-0.50376695,0.16909799,0.44967794,-0.73574895,0.31170264,-0.6446121,-0.9267368,0.8354531,-0.14370458,-0.17308007,0.72322655,-0.03696714,0.2172544,0.011675937,0.2771708,-0.47087812,0.0776479,-0.54979783,-0.73534006,-0.8906316,-0.74324214,0.29143617,0.3085131,-0.7171837,0.8172347,0.28872398,0.63205713,-0.4329984,0.5952146,-0.14137061,-0.14772382,-0.45515078,-0.34569773,0.59976774,0.26276428,-0.7221111,1.0100967,0.21066634,0.87265617,0.060863763,-0.2577845,-0.5951959,0.7215019,-0.59132934,-0.072218776,0.48048365,0.56736356,-0.90056443,-0.8299948,-0.13432069,0.40264755,-0.6215355,-0.22424622,0.6497689,0.13079055,0.51842046,-0.20016962,-0.11774661,-0.0782236,0.2385449,-0.33637628,0.16421711,-0.54827297,0.7850147,-0.76757216,-0.7804789,-0.33535337,0.6933089,-0.029662851,0.17821518,0.663417,0.14215061,-0.57521373,-0.6237526,0.018513847,-0.568794,-0.52324814,-0.6443384,-0.9625839,-0.7400138,0.7367197,0.8033147,-0.02637825,0.39896393,0.5270487,0.21050987,0.71645623,0.76135653,0.58115375,-0.2214341,0.65732294,-0.9590835,-0.4588253,0.9441475,0.9398221,-0.021974161,0.8256496,0.30379927,-0.14300695,-0.6485347,0.3586259,-0.262584,0.06267262,0.64219296,-0.7543953,-0.032561976,0.0635579,-0.4042382,-0.6401312,-0.75405085,-0.37451932,-0.5899875,-0.024738906,-0.8453771,0.77796894,-0.50099874,-0.3957484,0.027353741,0.65594774,0.34694856,0.24297568,0.86381847,-0.84028774,-0.6734746,0.23896559,-0.11359733,-0.2341357,0.6303714,-0.05116611,0.19461854,-0.15083131,-0.33182037,-0.81890744,0.87221605,-0.003531913,-0.036966346,0.91482544,-0.5505093,-0.05745872,0.7753675,0.18212606,0.88675207,0.025936553,0.9876091,-0.77999145,0.71662664,-0.32981163,-0.3120234,0.1454662,-0.9230601,-0.02732841,0.11865353,-0.88014597,0.15129839,-0.4156265,-0.87130195,0.43917817,0.52700126,0.895856,0.106338196,0.7788967,0.74737763,0.87211436,-0.216152,-0.80515647,-0.31276312,0.43361026,-0.09082247,0.47217646,-0.9377917,0.7470863,0.37784943,0.06774563,0.68819207,0.69119275,-0.0038688518,0.89029264,0.17176045,0.07699018,0.22049114,-0.53527296,0.2528708,-0.15640292,-0.7945674,-0.892861,0.50456065,0.33777675,-0.4283482,0.12043431,-0.22876221,0.062564775,0.6041475,-0.35933924,-0.13750464,0.16560474,0.27497232,-0.77714974,1.0443447,-0.8757686,-0.08283312,-0.17943978,-0.44263154,-0.08853577,0.36599684,0.50895846,0.08818902,0.59574765,-0.010944945,0.5114047,0.7490082,-0.9584427,-0.18634523,0.8024588,-0.6905909,-0.35267472,-0.79522383,0.7530332,0.5876857,0.38769007,0.7442086,-0.3631909,-0.5417622,0.76028615,-0.8791814,0.4606083,-0.21727273,-0.3604242,0.69134384,0.66928005,-0.28725263,0.7205436,0.10387824,-0.9784626,-0.75958914,-0.56468487,-0.7679222,-0.21848461,0.42992917,-0.7248929,-0.88014495,-0.94703585,0.5165945,0.9222479,0.7425455,-1.0282968,-0.70322526,-0.6972274,-0.75378215,0.6658087,-0.55863297,-0.032624003,-0.39650995,0.3966637,-0.08318575,0.21639012,-0.21175401,-0.27005294,-0.16271521,-0.7878961,-0.5017934,0.9355841,0.9775363,0.13686585,-0.12827776,-0.045261633,0.7601224,0.66089475,-0.05589796,0.35704488,-0.43707472,-0.6524259,-0.17682849,0.059100784,0.60800856,0.7820541,0.6249386,-0.92034274,-0.81131196,0.73696786,-0.51150614,0.8495025,-0.5795447,-0.0074670683,-0.6051285,0.6291915,-0.85630155,-0.3021038,0.71985984,-0.81980085,-0.7337577,0.82400876,0.71674645,0.7701045,-0.41516247,0.0067346427,-0.0001803643,-0.9028188,-0.5230846,-0.9185337,-0.78224903,0.3109704,1.0160855,0.8224963,-0.9276796,-0.27771434,0.3466222,-0.47430474,-0.5414403,0.08759943,0.7620474,0.77254915,-0.4662943,0.19914684,-0.6235607,-0.4725034,-0.1196247,0.24007557,0.6915139,0.066891715,0.047354825,-0.5600386,0.6436481,-0.5515191,0.45409825,-1.0421969,0.15755433,-1.043367,-0.613307,0.20564654,0.31548965,0.54784477,0.6997083,0.8674658,0.057538204,0.8907316,-0.79806,-0.0856075,0.5374103,-0.004153198,-0.5531041,-0.8862602,-0.6049232,0.178377,-0.21690795,0.6592832,0.50127786,-0.47097787,0.70073414,-0.8173462,0.17773925,0.45597073,0.66417146,-0.13678746,-0.6421093,-0.70476884,0.3943728,-0.59982026,-0.5854211,0.93749183,0.74797344,0.45327184,-0.6823857,0.817482,-0.37583995,0.50404185,0.5660466,0.68400943,0.05541506,0.17667055,0.70296836,-0.8598114,0.19749688,-0.93799365,0.7497893,0.18989347,0.88080233,0.022524435,0.22001788,-0.32374847,0.5854851,-0.24425946,-0.39369786,0.46348956,0.62791,-0.27912697,-0.26735196,-0.54887617,0.40806085,0.39630416,-0.9600765,0.90834576,-0.5595157,0.9241526,0.63188463,0.33891988,-0.42748207,-0.28891248,-0.033791002,0.5155336,-0.60358095,0.57157534,-0.6497963,0.13984089,-0.6194884,-0.33594897,-0.6461588,-0.120966695,0.408971,0.8439204,0.7595645,0.27722925,0.8732737,-0.021320209,-0.14475799,0.819418,-0.5751548,-0.30181026,0.2546464,-0.04366332,-0.14894706,0.83854955,-0.8527171,-0.30081257,0.39593643,0.287481,-0.14910425,0.33557463,0.6909667,0.014341581,0.8462546,-0.35511783,0.5848806,0.5657503,-0.50832605,-0.6676202,-0.4253637,-0.2599372,-1.0346018,0.57630897,-0.6266784,-0.47983703,0.8659946,-0.41539222,0.91959095,-0.3690684,0.4528079,0.2653904,-0.3519317,-0.7196168,0.046297673,0.6300826,0.92514044,-0.41679558,0.32471532,-0.59317076,0.22554365,-0.9345704,0.21804358,-0.61279947,-0.5937676,0.215262,0.3774386,0.14486462,0.0037749591,0.46362484,0.49329367,0.50501704,-0.2848013,0.5412851,0.51845384,-0.21730861,0.01220351,-0.31275663,-0.943238,-0.09328734,-0.27195573,0.38348436,0.17514536,-0.78895503,-0.47506297,-0.09503807,0.7399831,-0.70340157,-0.7884415,-1.0483346,-1.0587943,-0.7151508,-0.1974695,-0.8417694,-0.32286212,0.42796573,-0.51184505,0.7950461,-0.6890617,0.3511242,-0.8142001,-0.6905437,0.050601665,0.2830158,-0.6359578,0.5591302,0.27954453,-1.2509665,-0.45445377,-1.0149657,-0.65585804,-1.0747973,0.6779666,0.60117376,-0.9091302,0.113775335,-0.034236602,-1.1495717,0.60251355,-1.0338719,-1.0587634,-0.35021517,0.21404055,0.16777225,-1.2599729,0.39399046,0.4414938,0.5730243,0.46452698,-0.8801266,-0.5589596,0.6450023,-0.2790598,-0.2513289,-0.24781637,0.2954002,0.5630838,-0.7216725,-0.24376817,0.8065832,-0.32781792,-0.054227766,-0.6424199,0.27913404,-0.51678044,-0.4130059,0.99573356,0.50796944,-0.3019918,-0.9224202,0.9058864,0.09533015,-1.0136185,0.45988137,0.61650413,-0.86108303,-0.7852829,-0.65134805,-0.66324747,0.28166053,-0.36286414,0.27259994,-0.6432692,-0.095539674,-0.25292027,-0.05945912,0.23764816,0.5469522,0.31024516,-1.006563,0.281654,0.41436315,0.018136911,0.69679475,0.73269874,-0.58987755,-0.85728323,0.080086604,-0.61635196,0.4835692,0.31690574,1.0098802,-0.055828705,-0.17651285,-0.83536994,0.29476643,0.8588574,-0.32678023,0.32029498,0.13475183,-0.73765504,-0.64396954,-0.19785933,-0.6653694,-0.24982318,-0.8219555,-0.54896796,-0.5065582,0.2504861,0.80702734,0.71093845,0.7286363,-0.49658197,0.007203207,0.59654963,-0.000906524,0.39170045,0.07499859,0.7566326,-0.7536793,-0.64004713,0.89478934,0.23772945,-0.55844283,-0.2204928,0.8511951,-0.41543716,0.49868283,0.558692,0.037505187,-0.7470014,0.3351028,0.94873583,0.9145549,0.52082926,0.59792733,0.8837807,0.07433262,0.17007278,0.46159014,-0.1208629,-0.5398717,-0.16644299,0.37487873,0.015844539,0.26781964,-0.014572847,-0.67694265,0.23116304,-0.04839674,-0.7072671,-0.5487105,-0.49108174,0.1865358,-0.02593513,0.14708196,-0.66022444,0.27604657,0.1428663,-0.15466596,0.2607293,-0.94739264,0.63172466,0.6428606,0.052349344,-0.8399953,0.68142986,0.9581321,0.8457345,-0.42480206,0.33719486,0.2533394,-0.82197297,-0.7959356,-0.722822,-0.6449842,0.0074929907,0.032899156,-1.0135931,0.77258104,-0.8767057,-0.019617543,-1.0025885,-1.0005262],[-0.24277556,0.56937003,0.009301972,-0.707251,-0.54861283,-0.5203162,0.10760836,0.49136445,0.3754628,-0.82894987,-0.02131094,-0.43983743,-0.87168366,0.010582043,0.9109455,-0.22384796,0.47383487,0.52775174,0.009201334,0.7667941,0.39438304,-0.474883,-0.16961987,-0.121312045,0.80631506,-0.48924503,-0.28811982,-0.25174433,-0.81783205,-0.09219928,-0.25379345,0.24904375,-0.3689436,0.0205378,0.57187533,0.112810604,-0.46329865,1.05124,-0.82680917,0.57682735,1.0298427,1.0751595,0.038233995,0.8363758,-0.8877258,-0.6888533,-0.69170374,0.4999292,0.7550063,1.1915544,-0.10384364,-0.5583683,0.14536104,-0.24953212,1.2512649,-0.5687725,0.61439884,1.2228988,-0.3944085,0.1461912,0.79055697,0.86600584,0.969614,1.0077646,-0.36096722,1.3357183,1.015385,-0.18001589,0.8702162,1.3322163,0.17513856,0.5382946,0.34183106,1.4203944,0.8874471,0.16695184,0.12990086,0.66628706,-0.024727022,-0.7126797,-0.85146666,-0.34794554,-0.65582377,-0.44540015,-0.20206256,0.8889905,-0.26408115,-0.48521653,0.52067685,0.31538263,-0.38558984,0.7048635,-0.42453673,1.4130576,-0.57436067,0.76121575,-0.4517635,1.3523982,1.2716068,0.29762515,-0.22818285,0.4333977,0.77701646,0.6374142,1.2089878,0.59669757,1.2669032,0.7174811,0.0908111,1.4717085,0.3880582,-0.70676726,-0.6672489,-0.032971777,0.2050052,1.0486635,0.27466395,1.4017723,0.91774416,0.3834297,-0.17536958,1.4235955,0.8140567,-0.09281099,-0.34817278,0.8830415,0.46535933,-0.793814,0.28476098,0.91917837,-0.17719069,0.5597348,0.3629315,1.3197161,-0.09687797,-0.3665864,0.7718501,-0.3997907,0.85034376,0.9576835,0.7152411,1.273161,1.3985715,-0.77329576,0.35869676,0.2378707,1.1237986,0.6919962,0.9052922,1.3129766,0.39494812,0.9110952,0.9531089,1.4953432,-0.45151037,1.2723047,0.06380177,-0.13578755,0.477454,0.7664392,0.36312348,0.15203246,-0.12295303,0.5870875,0.8362733,0.51833844,0.6505595,0.35061944,0.25737548,-0.37633863,-0.7548063,-0.33099368,1.1606278,-0.48257682,0.8492273,0.5358181,-0.75709856,0.7276805,-0.7079646,0.070718445,-0.30015025,-0.0010057604,0.71029365,1.032373,1.0437464,0.23881076,0.6798092,0.34568414,-0.7267285,-0.13930479,-0.63147944,-0.6972237,0.32884574,0.5548672,0.44842732,0.175663,0.85004807,-0.7960732,0.8456099,-0.2070402,-0.5432768,-0.85013247,-0.39776224,0.7645169,1.0495553,0.23258314,-0.098114185,0.36650997,-0.47257662,-0.06259431,0.08113746,-0.6196498,-0.31987637,0.83437616,0.28754377,0.8446734,0.941628,-0.775509,0.5726203,0.7835528,0.9805401,-0.11263689,0.7723642,-0.85417306,-0.7016767,0.2594167,-0.8593457,-0.56558937,0.7581296,1.0325209,-0.1366223,0.57921284,-0.6141903,-0.63191056,-0.47461614,0.46090555,-0.54458016,0.35573345,0.54160315,-0.5448952,-0.54679084,0.5445584,0.068866596,0.58007866,-0.5642829,0.6300937,0.1916556,0.38664162,-0.20883109,-0.7103117,0.40368044,0.72993445,-0.5792843,-0.89995927,0.05933364,0.6661263,0.6953655,-0.21770844,0.3617909,-0.2743513,0.16104113,-0.14343092,1.0025737,-0.9468392,0.945399,0.7569429,0.08499893,0.41896552,-0.82391864,0.30924058,-0.8098824,-0.121812835,-0.8326643,0.13418059,0.17992426,-0.72930354,-0.3592227,-0.13821265,0.19745919,-0.1356628,-0.33794028,0.9952025,0.21047382,-0.22707008,-0.3198006,1.184251,1.0190756,0.9253632,0.4340363,-0.25843978,0.23366234,-0.26537532,-0.14100899,0.84037846,0.12504037,-0.67934304,-0.049536694,0.6281412,-0.33792108,0.07517465,-0.3599933,-0.68434817,0.3142926,1.1134634,0.15313184,0.89729893,1.0798457,-0.67569387,-0.04967196,-0.87712884,-0.37842074,-0.5863782,0.3226693,0.5521924,-0.4062792,0.036605317,0.5645101,0.6331977,0.13202217,1.0007547,0.7540012,-0.8904745,-0.048964705,-0.7987671,0.24014881,0.9175656,-0.44909123,0.9773123,-0.493624,0.6249111,0.25021157,0.9235666,0.72331244,-0.2829642,1.1271807,0.38163882,0.034258284,0.12864456,-0.6868909,0.36675835,0.28742552,-0.90944934,0.06526134,-0.63571966,0.027956096,0.45069236,-0.35687098,-0.4161828,-0.17940663,0.25347564,-0.14652617,0.5938947,-0.6280628,-0.23965809,-0.20013261,-0.50909704,0.72425556,-0.7420938,0.4170385,-0.3917786,-0.080298245,0.56157124,-0.53663164,-0.44512933,0.67099863,-0.28268456,-0.30065936,1.3125862,0.5153318,-0.7417151,0.07222004,0.6580478,0.98717046,-0.7843762,0.7405611,0.16335028,0.36420923,1.1405579,-0.49406072,1.1574597,-0.080393955,1.151767,-0.35783622,0.8818446,0.78761315,0.56754065,1.2264351,0.86172247,-0.13674562,-0.14492448,-0.597024,-0.445034,0.92178077,0.6198465,0.122498535,-0.24085173,0.91692877,1.0816091,-0.11320107,-0.097815864,0.17674218,-0.014567306,0.36787835,0.45821857,-0.8261388,1.1277102,0.1883615,-0.5076783,0.44223863,0.16582385,-0.35593882,-0.5122003,0.2063674,1.1427855,0.5074714,1.0272762,-0.64172196,0.61137694,1.1627271,0.12042564,0.42556506,-0.3426031,0.81042314,-0.07579993,-0.089516915,-0.26515988,0.4146886,0.9628082,-0.65530443,-0.53882277,0.56461567,-0.8429256,-0.20200989,0.46032116,-0.21829118,-0.18303156,0.49595627,0.40430936,-0.8432102,-0.28087935,-0.5539877,-0.7064044,-0.802918,-0.56790435,-0.25754946,-0.44200093,-0.07654259,0.09222049,-0.21153866,0.08349022,0.5699059,-0.8713464,-0.7086152,0.29514167,0.5116868,0.8725323,0.56034994,0.5134783,0.38855293,0.69494075,0.23788388,-0.51259065,0.026796322,0.13570403,0.07699142,0.83906054,0.017468117,0.63953114,0.46379015,-0.788975,0.26773098,0.22929132,0.73886585,-1.0276544,-0.94394743,0.7343705,0.8097665,0.34895495,0.5247916,-0.8854245,0.13584508,-0.016760554,0.1884873,0.80939543,-0.36924163,-0.0011126103,-0.002972877,0.7196732,0.43489453,0.41871566,-0.9059282,-0.120434806,-0.46687967,-0.43026215,0.62121993,0.1773588,-0.94191915,0.3383865,-0.8651779,-0.30862707,-0.7615184,-1.0031905,-0.3115175,0.02042875,0.89289254,0.81212646,0.60559714,0.66220665,-0.57397264,0.65769315,-0.8395979,0.58693457,-0.2204008,0.9236055,-0.8654236,-0.3557333,-0.23294728,-0.054455675,0.937649,-0.58805335,0.26371962,0.73590416,0.60778743,0.39492184,-0.28632522,-0.055003293,-0.4134721,-0.48340347,0.17556451,0.10283209,0.5010411,-0.31878668,0.20514597,0.377121,-0.94781077,0.4152971,-0.16560346,0.8132172,-0.56857806,0.59964186,-0.6335254,-0.46727285,0.22071615,-0.21623507,0.4681185,0.3719807,0.91182476,-0.16434602,-0.32392156,0.55146915,0.3872225,1.0268384,-0.6987647,0.61155194,-0.3622044,-0.5496411,0.77259463,-0.96173424,0.5897217,0.046721265,0.57556736,-0.48154145,0.42694995,0.6442524,0.7765674,-0.67026097,-0.5945831,0.31377548,-0.85712224,0.60249895,0.4994731,-0.6302468,0.9850164,-0.5981738,-0.2487043,-0.5303879,0.13711709,-0.12696922,-0.66267514,0.43226624,0.98017555,-0.8051863,0.36150363,0.6752652,0.80245316,-0.41543403,0.5428554,-0.44294602,0.6090397,0.17393889,-0.90589243,-0.74150395,-0.4034893,0.27221742,0.5883608,-0.7983984,-0.1846193,-0.30251095,0.5509371,0.32250288,-0.51358575,-0.17513095,-0.24167669,-0.16219616,-0.04092086,-0.29012254,-0.4345395,-0.623042,1.0380783,0.5249058,0.3856063,0.8533906,-1.0505123,-0.34291896,0.16195966,-0.19049661,-0.4847655,-0.2696598,0.98806614,-0.5545333,0.55318505,0.7787871,0.017432533,0.33416092,-0.48806238,0.8078731,-0.6902175,-0.896752,-0.46706027,-0.23818827,1.1568246,-0.7700811,0.6949273,0.8412053,-0.72089547,0.7693271,0.34793544,0.09355214,-0.122925125,1.2613968,0.9402978,0.9185856,0.1362014,0.9501322,0.30583283,0.5356799,0.37053183,1.180498,-0.68326116,0.17753178,-0.021797908,0.67911434,0.6152356,-0.33612302,0.5097297,1.0938842,0.05385914,-0.615883,-0.101221345,-0.7475587,0.82105315,-0.77912706,-0.76713437,-0.752114,-0.004134765,0.75369287,-0.5979198,-0.7693556,0.4676671,-0.65731114,0.3261001,0.38013706,0.90777016,0.33290038,-0.3924603,0.029660974,0.71290463,0.9366984,-0.2433503,-0.007487824,0.5629312,-0.21723579,-0.20152244,-0.47441354,-0.5723777,0.97818226,-0.33671793,-0.22248945,-0.9071053,-0.48807764,-0.6178916,-0.19893657,0.7081655,-0.67760754,0.5230944,0.38152993,0.11652446,0.5233738,-0.18695596,-0.21482806,0.9453467,0.18470278,0.82502604,0.570259,-0.5072937,-0.66901636,-0.52736294,0.27255514,0.6788793,0.60585785,0.7687961,-0.06815945,-0.34148142,0.76920485,0.10167366,0.32572237,-0.91024584,-0.80818784,-0.62456065,-0.9457186,-0.6863742,0.1468624,0.9774953,0.7107219,-0.6454355,0.88353676,0.9270102,-0.51577485,-0.8308011,0.15521373,-0.11285393,-0.60702723,0.82269156,0.7157472,0.36764136,-1.0187418,0.2175124,0.44613668,-0.23569068,-0.6413731,-0.5169158,0.6529476,-0.17997271,-0.9476378,0.005492447,-0.6817374,-0.9815856,0.9066308,-0.29028386,-0.42803985,-0.27252987,-0.70258814,0.824984,0.66279054,-0.1662895,-0.14866395,0.56310356,-0.20186818,-0.55327594,-0.22332275,0.8421207,0.09428014,-0.2600916,-0.85961497,0.10078651,0.8624958,0.8292248,0.43378446,0.7897755,0.018860923,-0.42045218,-0.9362707,-0.32128805,-0.623782,-0.15237135,-0.0450416,-0.24512738,-0.70182264,-0.6533812,-0.27919304,-0.25062644,0.8549556,0.06971214,-0.555086,-1.0112299,-0.4392417,0.21055548,-0.9804485,0.78585595,-1.0174257,0.22479928,-0.21012051,0.5699707,-0.32836673,0.33555958,0.56710625,-0.21266393,-0.8738496,-0.3586677,-0.107017964,-0.82317054,0.02160052,-0.21608736,-0.0679891,-0.7887607,0.07430833,0.17488867,-0.6751523,0.8870451,-0.24737442,-0.80560035,-0.9007284,0.031053616,-0.9899962,0.45680246,-0.4295177,-0.5816507,-0.6262766,0.8474747,-0.547706,0.21207531,-0.1382736,0.25888535,-0.18037167,0.68090993,0.86443406,0.19423686,-0.04364152,-0.81575227,0.12391923,0.5560074,0.63397706,-0.4454489,0.24478476,-0.20039369,0.28529486,-1.0827304,-0.39632905,0.9175972,0.874954,0.28624535,0.066873804,-0.44277304,0.53286755,-0.5110965,0.6325877,-0.73187274,-0.8380072,0.98169804,0.7168518,0.08070545,-0.60760057,0.6017968,0.8388678,0.35589945,0.8224682,-0.27035102,0.12471033,0.12561691,0.82964104,-0.69060665,-0.9024037,0.36610106,0.18631229,-0.16518854,-0.51500344,-0.2098375,0.46348426,0.24839568,0.71924096,-0.7128825,-0.49875572,0.13986827,0.95176244,0.4961275,0.568016,-0.6504727,1.0235162,-0.74455774,-0.46032515,0.0019702222,0.8478487,1.032724,0.86248827,-0.8860035,-0.09267953,1.074481,-0.029872961,0.29860806,-0.23736273,0.22828574,0.44753855,-0.50452065,0.74822414,0.13725087,-0.7168939,0.8076653,0.4522951,1.05882,0.3115178,-0.67017376,0.8791828,0.26592162,0.91333985,-0.09484682,-0.87423545,-0.11779915,-0.72620606,-0.18051952,-0.1908418,0.31680688,-0.94565016,-0.49556056,-0.41343608,-0.40902087,-0.8864153,-1.0439327,-0.0105907805,-0.007131461,-0.30476677,-0.2924271,0.035485562,0.16642097,-0.15018386,0.2340556,-0.29217973,-0.14204451,-0.9848723,0.1313665,-0.56164455,0.56455886,-0.45199794,-0.7198875,0.052162513,0.7033426,0.105399646,-0.23186089,0.058274403,0.18473545,0.8363588,-0.3366282,-0.43203884,-0.8523583,-0.77350694,-0.7290957,-0.6255697,-0.668449,0.750079,0.010350099,0.37037206,0.48254475,-0.6319664,-0.11109368,0.027059177,-0.4835887,0.656711,-0.37594816,0.8859094,0.5261346,0.7801122,-0.7184643,0.6441692,0.5287163,0.6112252,-0.23796478,-0.7849863,-0.017581925,0.3348377,-0.9612624,-1.0067211,0.7316016,-0.23737448,-0.21593072,-0.61584073,-0.3406582,-0.9993658,-0.5275481,-0.40670386,0.83801836,-0.73666835,1.0708576,-0.40579492,-0.55551827,-0.21203305,-0.4143456,0.9002653,-0.4871495,-0.85012925,-0.6645311,-0.705397,-0.1059785,-0.1565903,0.2888737,0.91477597,-0.057213448,0.7609252,0.24622819,-0.612108,-0.78429633,-0.48879805,-0.7599582,0.6340494,0.68564594,0.37570107,0.75662166,0.7058031,-0.14260948,0.6932197,-0.9544392,0.9290054,0.7705359,0.32736954,-0.15505569,-0.9255445,-0.87377465,0.21723686,0.6856442,-0.27256897,-0.46381706,0.8463125,0.7390549,0.69946545,-0.09698017,-0.1513237,0.7587365,-0.038658887,-0.9481756,-0.060306508,-0.95393384,0.44286817,-1.0742298,-0.80121607,0.8261172,0.21239062,0.76108956,-0.6381135,-0.7201539,-0.6832383,0.39737755,-0.560579,0.9807893,-1.0915346,0.52222973,0.12559111,-0.6665251,0.6358306,-1.1159108,-0.95417994,0.06206408,-0.5983543,0.29454273,0.6875086,-0.69820267,0.805404,0.54177654,0.017089631,0.17454498,-0.071629696,-0.26296887,-0.33104768,0.28368956,-0.36371893,0.63086617,0.38422555,-0.030874452,-0.20547777,-0.9725166,-0.09961388,0.35523775,-0.09314321,-0.904758,-0.06480475,0.72417295,0.27382258,-0.4146133,-0.22817951,-0.85917866,0.3453315,-0.61721814,-0.24746804,0.49274907,-0.10916536,0.021782923,-0.29057935,0.27489868,0.089907415,-0.9665442,0.59677595,0.43173456,0.1907708,0.49028975,-0.4417626,0.4298609,-0.37488383,0.13056459,0.6575142,-0.22423571,1.0944289,-0.9492336,0.26306847,1.0433117,0.9840346,-0.15505742,0.5173465,-0.2631162,0.4215335,-0.40730232,-0.5554028,0.7645405,-0.23291564,-0.30395773,0.63039064,0.9208824,0.37543973,-0.62416226,0.647582,0.6185465,-0.47078985,0.8402433,0.5052294,0.16825972,0.96534497,0.64781547,-0.8470381,-0.27288064,0.09405272,0.19191188,1.0059307,0.3752454,-0.08369333,-0.044779703,0.9478781,-0.39834785,-0.476885,0.85223746,-0.81477976,0.60559916,-0.95617694,-0.40132165,-0.9163064,0.6884073,-0.59124374,0.8742552,-0.511908,-0.664903,0.29697227,-0.15070558,-0.088029884,0.34655777,-0.58917445,-0.0658278,0.938325,-0.16547364,-0.6069713,-0.6182006,0.586297,0.9144231,0.14980893,0.9673456,-0.15037857,-1.0148016,-0.39553663,0.40332067,0.7529375,0.94296867,0.63524896,-0.3062738,0.185716,-0.8410815,-0.7864942,0.5493472,-0.2045069,-0.5272316,0.5692255,-0.97783643,-0.10718242,-0.5975108,0.48938733,0.81594163,0.6743982,0.63712746,-0.73831505,0.19769013,-0.9177711,0.5047348,0.5295322,-0.84692323,-0.829356,0.7645447,0.12845959,-0.8896212,-0.06313518,0.8379491,0.7317694,0.44578916,0.22048876,-0.8479845,-0.16022566,-0.6315131,-0.3664743,0.46724433,-0.43952167,-0.70564103,0.4209311,0.87780553,0.24932905,-0.80568,-0.4060847,0.80517185,0.8034897,0.40383533,-0.20285791,-0.41524932,0.6234763,0.019656569,0.7629783,-0.8313992,0.13308747,-0.39780405,-0.72014433,0.05484555,-0.05333843,-0.004232319,-0.16959932,0.40543222,-0.6049265,0.10679642,-0.5958621,-0.7071599,0.85580605,0.6915824,-0.10905593,-0.30847085,-0.9095253,-0.19630675,-0.6522045,0.70600694,0.46783593,-0.22090851,0.91919994,-0.5307648,-0.09018803,-0.40669754,-0.8712356,0.93571454,0.49472234,-0.8005817,0.57617617,-0.67370886,-0.1479792,-0.45785424,-0.08516772,-0.988757,-0.39027065,-0.91231596,-0.52125955,0.37937918,-0.9978235,-0.10492918,0.72735727,-0.8258487,-0.35032856,-0.42739776,-1.0439612,0.07484448,0.785511,0.7034442,-0.31940398,0.6746072,0.5166924,0.7487345,-0.3447808,0.11491335,0.6372396,0.4440486,-0.1814534,-0.98206466,0.48796654,-0.2356924,0.43857998,0.2664548,0.4854379,-0.8018211,-0.6479009,-0.614152,-0.37385765,0.38923874,0.763634,-0.4261936,-0.4597264,-0.29296133,0.08910001,-1.071805,0.53599656,0.31700754,-1.1356807,7.8835685E-05,0.58033323,0.058900375,0.31109914,-0.8140265,0.90565044,0.78688663,-0.40426993,0.23359826,0.3198171,-0.4476536,-0.5469017,-1.0280598,0.6692423,0.009529583,-0.94124985,-0.62397325,-0.17415957,0.23479493,0.6628038,0.071404815,0.24754526,0.3850902,-0.33891764,0.9201008,0.5608908,0.8095233,0.8429265,-0.6695341,0.53745115,-0.48302472,0.7682662,-0.1686626,0.22393969,-0.34108287,-0.2865617,0.16315693,-0.73950803,-0.27767605,0.5549863,-0.09907745,0.9443915,-0.5330287,1.0070238,0.6723034,0.45347896,0.523049,0.7247845,0.5312816,0.27073696,-0.3613303,-0.8138736,0.8219906,-0.6340634,-0.87609744,0.78272843,0.67959696,-0.8685817,-0.1996696,0.4652601,-0.04259409,-0.36227122,0.8433623,-0.48902363,0.6407424,0.2839142,0.1758335,0.20013641,0.49538317,0.6352229,0.68588847,-0.79707307,-0.35492966,0.10959402,0.8311806,0.51444316,0.1775509,-0.039763253,-0.25025785,-0.32693756,-0.68155235,-0.31092492,-0.35947102,0.77063465,0.53824985,-0.3245174,-0.56060076,-0.07287784,-0.16516411,0.65065885,-0.8684095,-1.027632,0.37975073,-0.46596685,0.70135397,0.59881264,0.104792155,0.4076602,-0.48516566,0.7584383,0.8165749,0.12880528,-0.24686803,0.119227126,0.47904116,-0.8465639,0.4238181,0.47227228,-0.85743856,0.61634433,-0.91648406,-0.46499324,0.7120254,0.79375464,-0.5924226,-0.21312334,0.6400524,-0.46976435,-0.32349893,-0.38320732,0.84016705,-0.6493193,-0.36486635,-0.23629196,-0.3577225,-0.42365527,0.52923054,-0.3289706,0.8355482,-0.9886387,0.60905313,-0.060976714,-0.89093035,-0.17126301,-0.36319634,0.540956,0.5129112,0.65644324,-0.62576973,0.7509945,0.6069288,-0.18048951,0.058732994,0.4426885,0.46274734,0.7218181,0.12488948,-0.56379557,-0.688758,0.9812408,-0.83950233,0.8789604,0.31438044,-0.040563058,0.9372121,0.9065488,-0.08337587,0.7775072,-0.042965367,0.252312,0.6673441,0.77653986,0.11957822,0.4611576,-0.903354,0.18785901,-0.15271033,0.14450932,0.9271488,0.68146557,-0.97150505,-0.36451808,-0.3799777,-0.052175034,0.19965205,0.76934165,0.850047,-1.0613198,-0.8270156,-0.3237935,0.0759881,0.8708505,-1.0457494,0.67991,-0.792775,-0.94065154,-0.9370603,0.87583894,-0.17341547,-0.06943528,-0.37712067,-0.15884084,0.53677523,-0.09696133,0.6513027,-0.84424335,1.1457536,-0.6888929,-0.9893629,-0.76063305,0.44501397,0.32752818,-0.85145235,-0.52581906,-0.14874251,-0.47215837,-0.48008925,0.43550196,0.45789662,0.21230343,-0.14348929,0.83641547,-0.5356351,-0.59882754,-0.32184288,0.43992424,-0.52400815,-0.5399246,1.0436187,-0.7421671,0.8570037,-0.857629,0.117353596,0.44307852,-0.71687156,-0.58565485,0.6156487,-0.060493134,1.0900165,0.677395,-0.07979253,0.9128599,0.10742504,0.55036366,0.79582334,0.013810594,0.8093619,-0.20600672,-0.61525595,0.48696536,-0.27581874,0.060430314,0.068231665,0.80913436,-0.92827106,1.0949113,0.5559356,0.67680186,0.5806039,-0.44388375,0.99498403,-0.085914016,0.5867855,-0.6331854,-0.37852663,0.167469,-0.86787045,0.5282978,-0.17223947,-0.8830672,-0.36675066,-0.51364756,0.42292973,-0.5482085,0.2862197,1.0340341,-0.8923945,0.19466165,-0.61574316,-0.011825234,-0.1283043,0.05014408,-0.43787855,0.7311234,0.23813869,0.70884454,0.0011409826,0.7783678,0.28989613,-0.020358264,0.9101213,0.44083035,0.72458553,-0.04399836,-0.7987045,-0.174354,-0.31674215,0.40316153,0.45748258,-0.4362161,0.18323874,-0.38799813,-0.19023617,0.25813794,0.6121422,-1.0153934,-0.92477894,-0.35370332,-0.06754456,0.090723924,-0.577857,-0.50566804,-0.3822212,0.060257785,0.65737164,-0.74688774,-0.07020293,0.30501598,-0.56661177,0.82909757,0.10788124,0.10517946,0.4255416,0.57545584,0.41668233,-0.054854535,0.3662381,0.04808533,-0.14492558,-0.69370747,0.8858611,0.43356225,-0.12861523,-0.037507933,-0.106223725,0.2597227,-0.72962594,0.15293214,0.8255405,0.6990299,0.06783335,0.34903648,0.16717881,-0.44419485,-1.0392371,0.0288968,0.19667959,0.41581428,0.24828066,0.45643795,0.25433642,-0.34499937,0.7338897,0.0281028,-0.51836336,-0.02583479,-0.8504654,0.66849124,0.26192194,0.19931963,-0.42071438,0.7823797,0.033372708,0.63394725,1.1182362,-0.8345847,-0.79169625,-0.8618679,-0.10787072,-0.31296295,-0.14935368,0.91734403,0.12315766,-0.2837499,0.7718438,0.52406055,-0.9935586,-0.015132625,-0.93227786,-0.004868762,0.9562023,0.8151526,-0.43166652,-0.26675612,-0.2465935,0.44283727,-0.11681788,0.7361599,0.22330065,0.30693495,-0.29619914,0.30206951,-0.13566145,-0.84136814,-0.48199648,-0.58029187,0.6320121,-0.21373357,-0.20142452,0.277853,0.7787951,0.5825999,-0.055571444,-0.6101797,0.24032483,-0.738728,0.11117747,-0.19311611,0.627815,-1.0015451,0.29832765,-0.13453661,-0.4235997,-0.75855017,-0.7266931,-0.038519867,-0.10313253,0.61060876,-0.8236882,-0.94368476,-0.2608152,-0.6998414,-0.8763015,0.85767466,-0.91118485,-0.34332407,-0.19102694,-0.71264184,0.24522875,-0.381798,-0.40216535,-0.103528045,-0.40745106,0.059577048,0.36384746,0.22028609,-0.31642377,0.764442,0.70414263,-0.115875565,-0.17775846,0.032673262,-0.31301126,0.17132823,-0.11920502,1.0791763,0.26992264,0.5174224,0.1677751,0.5185933,0.6696952,-0.5959349,0.27501905,-0.36087972,-0.9017577,0.2385654,0.69634694,-0.37033388,-0.79332685,0.2758446,-0.12640002,-0.16981171,0.5440154,0.73056525,1.0828726,0.46870416,0.698287,0.62605894,-0.31145772,-0.28051004,-0.6091324,0.8016006,-0.49478662,0.32132685,-0.26948115,0.59335554,-0.6166629,0.47095132,0.18481034,-0.34771892,-0.49931517,0.5068114,0.21536537,-0.26671952,0.40356925,-0.5923689,-0.03387453,0.92854613,-0.25680715,0.65198123,0.1587144,0.8774789,1.0967509,-0.6959409,0.067383826,1.0236797,-0.008486039,-0.19151337,-0.6717401,-0.7115481,-0.11260751,-0.6392407,0.75390285,-0.484489,-0.23661037,-0.60487926,0.57755834,0.39648053,0.30028132,0.35974652,0.72188276,-0.6747346,-0.71901363,-0.046898086,-0.23785172,-0.21457925,-0.6385037,-0.6885669,-0.491866,1.0626943,-0.029171102,0.31487623,0.6370791,-0.12185463,0.8929188,0.13792998,-0.14410007,-0.82635146,-0.76035213,0.0043628747,-0.8561307,0.2437668,0.11066546,0.5341531,0.0954323,0.733672,0.8910198,0.26349664,0.8021774,0.3188025,0.3483034,0.016603673,-0.5617769,0.20301926,0.80903494,0.2584453,0.25256193,-0.56777525,-0.09969026,0.49864691,0.36593744,0.067221165,0.116131924,-0.37631112,-0.74655974,0.092912935,0.3746984,-0.61483026,0.8620973,0.72648764,-0.8651445,-0.6098809,-0.9892279,-0.36186424,0.81125724,-0.22164394,-0.7395591,-0.12505458,0.1457159,-0.15849239,-0.88396984,0.9762038,-0.203453,-0.22464055,-0.14693439,0.8101553,0.5515278,-0.22102219,0.3355877,-0.91922414,-0.12091622,-0.8602194,0.8620864,-0.50883055,-0.41552067,0.55592996,0.25777408,0.4416901,1.0753702,-0.79557115,-0.69514394,-0.28479832,1.0256412,0.1025401,0.5040147,-0.09820679,0.0217738,-0.20241456,-0.31757388,-0.793242,-0.687684,-0.45371035,-0.8141282,-0.9575242,-0.041024733,0.0689893,0.88286334,-0.691308,-0.675747,0.87219846,-0.4352037,-0.5409496,0.624409,0.63361734,0.2161477,-0.07535997,0.49726295,-0.080099806,-1.1647494,0.75693667,1.0778728,-0.8558312,-1.0675068,-0.51753134,-0.2699297,-1.0130408,-0.27944985,-0.22962998,0.9041975,-0.74141073,0.75361484,-0.8532411,0.4255468,-0.9324314,-0.37082493,0.61779004,-0.079026125,0.21504691,0.80516547,-0.9306405,